FANN_FLO_2.1
num_layers=3
learning_rate=0.700000
connection_rate=1.000000
network_type=0
learning_momentum=0.000000
training_algorithm=2
train_error_function=1
train_stop_function=0
cascade_output_change_fraction=0.010000
quickprop_decay=-0.000100
quickprop_mu=1.750000
rprop_increase_factor=1.200000
rprop_decrease_factor=0.500000
rprop_delta_min=0.000000
rprop_delta_max=50.000000
rprop_delta_zero=0.100000
cascade_output_stagnation_epochs=12
cascade_candidate_change_fraction=0.010000
cascade_candidate_stagnation_epochs=12
cascade_max_out_epochs=150
cascade_min_out_epochs=50
cascade_max_cand_epochs=150
cascade_min_cand_epochs=50
cascade_num_candidate_groups=2
bit_fail_limit=3.49999994039535522461e-01
cascade_candidate_limit=1.00000000000000000000e+03
cascade_weight_multiplier=4.00000005960464477539e-01
cascade_activation_functions_count=10
cascade_activation_functions=3 5 7 8 10 11 14 15 16 17 
cascade_activation_steepnesses_count=4
cascade_activation_steepnesses=2.50000000000000000000e-01 5.00000000000000000000e-01 7.50000000000000000000e-01 1.00000000000000000000e+00 
layer_sizes=129 129 129 
scale_included=0
neurons (num_inputs, activation_function, activation_steepness)=(0, 0, 0.00000000000000000000e+00) (0, 0, 0.00000000000000000000e+00) (0, 0, 0.00000000000000000000e+00) (0, 0, 0.00000000000000000000e+00) (0, 0, 0.00000000000000000000e+00) (0, 0, 0.00000000000000000000e+00) (0, 0, 0.00000000000000000000e+00) (0, 0, 0.00000000000000000000e+00) (0, 0, 0.00000000000000000000e+00) (0, 0, 0.00000000000000000000e+00) (0, 0, 0.00000000000000000000e+00) (0, 0, 0.00000000000000000000e+00) (0, 0, 0.00000000000000000000e+00) (0, 0, 0.00000000000000000000e+00) (0, 0, 0.00000000000000000000e+00) (0, 0, 0.00000000000000000000e+00) (0, 0, 0.00000000000000000000e+00) (0, 0, 0.00000000000000000000e+00) (0, 0, 0.00000000000000000000e+00) (0, 0, 0.00000000000000000000e+00) (0, 0, 0.00000000000000000000e+00) (0, 0, 0.00000000000000000000e+00) (0, 0, 0.00000000000000000000e+00) (0, 0, 0.00000000000000000000e+00) (0, 0, 0.00000000000000000000e+00) (0, 0, 0.00000000000000000000e+00) (0, 0, 0.00000000000000000000e+00) (0, 0, 0.00000000000000000000e+00) (0, 0, 0.00000000000000000000e+00) (0, 0, 0.00000000000000000000e+00) (0, 0, 0.00000000000000000000e+00) (0, 0, 0.00000000000000000000e+00) (0, 0, 0.00000000000000000000e+00) (0, 0, 0.00000000000000000000e+00) (0, 0, 0.00000000000000000000e+00) (0, 0, 0.00000000000000000000e+00) (0, 0, 0.00000000000000000000e+00) (0, 0, 0.00000000000000000000e+00) (0, 0, 0.00000000000000000000e+00) (0, 0, 0.00000000000000000000e+00) (0, 0, 0.00000000000000000000e+00) (0, 0, 0.00000000000000000000e+00) (0, 0, 0.00000000000000000000e+00) (0, 0, 0.00000000000000000000e+00) (0, 0, 0.00000000000000000000e+00) (0, 0, 0.00000000000000000000e+00) (0, 0, 0.00000000000000000000e+00) (0, 0, 0.00000000000000000000e+00) (0, 0, 0.00000000000000000000e+00) (0, 0, 0.00000000000000000000e+00) (0, 0, 0.00000000000000000000e+00) (0, 0, 0.00000000000000000000e+00) (0, 0, 0.00000000000000000000e+00) (0, 0, 0.00000000000000000000e+00) (0, 0, 0.00000000000000000000e+00) (0, 0, 0.00000000000000000000e+00) (0, 0, 0.00000000000000000000e+00) (0, 0, 0.00000000000000000000e+00) (0, 0, 0.00000000000000000000e+00) (0, 0, 0.00000000000000000000e+00) (0, 0, 0.00000000000000000000e+00) (0, 0, 0.00000000000000000000e+00) (0, 0, 0.00000000000000000000e+00) (0, 0, 0.00000000000000000000e+00) (0, 0, 0.00000000000000000000e+00) (0, 0, 0.00000000000000000000e+00) (0, 0, 0.00000000000000000000e+00) (0, 0, 0.00000000000000000000e+00) (0, 0, 0.00000000000000000000e+00) (0, 0, 0.00000000000000000000e+00) (0, 0, 0.00000000000000000000e+00) (0, 0, 0.00000000000000000000e+00) (0, 0, 0.00000000000000000000e+00) (0, 0, 0.00000000000000000000e+00) (0, 0, 0.00000000000000000000e+00) (0, 0, 0.00000000000000000000e+00) (0, 0, 0.00000000000000000000e+00) (0, 0, 0.00000000000000000000e+00) (0, 0, 0.00000000000000000000e+00) (0, 0, 0.00000000000000000000e+00) (0, 0, 0.00000000000000000000e+00) (0, 0, 0.00000000000000000000e+00) (0, 0, 0.00000000000000000000e+00) (0, 0, 0.00000000000000000000e+00) (0, 0, 0.00000000000000000000e+00) (0, 0, 0.00000000000000000000e+00) (0, 0, 0.00000000000000000000e+00) (0, 0, 0.00000000000000000000e+00) (0, 0, 0.00000000000000000000e+00) (0, 0, 0.00000000000000000000e+00) (0, 0, 0.00000000000000000000e+00) (0, 0, 0.00000000000000000000e+00) (0, 0, 0.00000000000000000000e+00) (0, 0, 0.00000000000000000000e+00) (0, 0, 0.00000000000000000000e+00) (0, 0, 0.00000000000000000000e+00) (0, 0, 0.00000000000000000000e+00) (0, 0, 0.00000000000000000000e+00) (0, 0, 0.00000000000000000000e+00) (0, 0, 0.00000000000000000000e+00) (0, 0, 0.00000000000000000000e+00) (0, 0, 0.00000000000000000000e+00) (0, 0, 0.00000000000000000000e+00) (0, 0, 0.00000000000000000000e+00) (0, 0, 0.00000000000000000000e+00) (0, 0, 0.00000000000000000000e+00) (0, 0, 0.00000000000000000000e+00) (0, 0, 0.00000000000000000000e+00) (0, 0, 0.00000000000000000000e+00) (0, 0, 0.00000000000000000000e+00) (0, 0, 0.00000000000000000000e+00) (0, 0, 0.00000000000000000000e+00) (0, 0, 0.00000000000000000000e+00) (0, 0, 0.00000000000000000000e+00) (0, 0, 0.00000000000000000000e+00) (0, 0, 0.00000000000000000000e+00) (0, 0, 0.00000000000000000000e+00) (0, 0, 0.00000000000000000000e+00) (0, 0, 0.00000000000000000000e+00) (0, 0, 0.00000000000000000000e+00) (0, 0, 0.00000000000000000000e+00) (0, 0, 0.00000000000000000000e+00) (0, 0, 0.00000000000000000000e+00) (0, 0, 0.00000000000000000000e+00) (0, 0, 0.00000000000000000000e+00) (0, 0, 0.00000000000000000000e+00) (0, 0, 0.00000000000000000000e+00) (0, 0, 0.00000000000000000000e+00) (0, 0, 0.00000000000000000000e+00) (129, 5, 5.00000000000000000000e-01) (129, 5, 5.00000000000000000000e-01) (129, 5, 5.00000000000000000000e-01) (129, 5, 5.00000000000000000000e-01) (129, 5, 5.00000000000000000000e-01) (129, 5, 5.00000000000000000000e-01) (129, 5, 5.00000000000000000000e-01) (129, 5, 5.00000000000000000000e-01) (129, 5, 5.00000000000000000000e-01) (129, 5, 5.00000000000000000000e-01) (129, 5, 5.00000000000000000000e-01) (129, 5, 5.00000000000000000000e-01) (129, 5, 5.00000000000000000000e-01) (129, 5, 5.00000000000000000000e-01) (129, 5, 5.00000000000000000000e-01) (129, 5, 5.00000000000000000000e-01) (129, 5, 5.00000000000000000000e-01) (129, 5, 5.00000000000000000000e-01) (129, 5, 5.00000000000000000000e-01) (129, 5, 5.00000000000000000000e-01) (129, 5, 5.00000000000000000000e-01) (129, 5, 5.00000000000000000000e-01) (129, 5, 5.00000000000000000000e-01) (129, 5, 5.00000000000000000000e-01) (129, 5, 5.00000000000000000000e-01) (129, 5, 5.00000000000000000000e-01) (129, 5, 5.00000000000000000000e-01) (129, 5, 5.00000000000000000000e-01) (129, 5, 5.00000000000000000000e-01) (129, 5, 5.00000000000000000000e-01) (129, 5, 5.00000000000000000000e-01) (129, 5, 5.00000000000000000000e-01) (129, 5, 5.00000000000000000000e-01) (129, 5, 5.00000000000000000000e-01) (129, 5, 5.00000000000000000000e-01) (129, 5, 5.00000000000000000000e-01) (129, 5, 5.00000000000000000000e-01) (129, 5, 5.00000000000000000000e-01) (129, 5, 5.00000000000000000000e-01) (129, 5, 5.00000000000000000000e-01) (129, 5, 5.00000000000000000000e-01) (129, 5, 5.00000000000000000000e-01) (129, 5, 5.00000000000000000000e-01) (129, 5, 5.00000000000000000000e-01) (129, 5, 5.00000000000000000000e-01) (129, 5, 5.00000000000000000000e-01) (129, 5, 5.00000000000000000000e-01) (129, 5, 5.00000000000000000000e-01) (129, 5, 5.00000000000000000000e-01) (129, 5, 5.00000000000000000000e-01) (129, 5, 5.00000000000000000000e-01) (129, 5, 5.00000000000000000000e-01) (129, 5, 5.00000000000000000000e-01) (129, 5, 5.00000000000000000000e-01) (129, 5, 5.00000000000000000000e-01) (129, 5, 5.00000000000000000000e-01) (129, 5, 5.00000000000000000000e-01) (129, 5, 5.00000000000000000000e-01) (129, 5, 5.00000000000000000000e-01) (129, 5, 5.00000000000000000000e-01) (129, 5, 5.00000000000000000000e-01) (129, 5, 5.00000000000000000000e-01) (129, 5, 5.00000000000000000000e-01) (129, 5, 5.00000000000000000000e-01) (129, 5, 5.00000000000000000000e-01) (129, 5, 5.00000000000000000000e-01) (129, 5, 5.00000000000000000000e-01) (129, 5, 5.00000000000000000000e-01) (129, 5, 5.00000000000000000000e-01) (129, 5, 5.00000000000000000000e-01) (129, 5, 5.00000000000000000000e-01) (129, 5, 5.00000000000000000000e-01) (129, 5, 5.00000000000000000000e-01) (129, 5, 5.00000000000000000000e-01) (129, 5, 5.00000000000000000000e-01) (129, 5, 5.00000000000000000000e-01) (129, 5, 5.00000000000000000000e-01) (129, 5, 5.00000000000000000000e-01) (129, 5, 5.00000000000000000000e-01) (129, 5, 5.00000000000000000000e-01) (129, 5, 5.00000000000000000000e-01) (129, 5, 5.00000000000000000000e-01) (129, 5, 5.00000000000000000000e-01) (129, 5, 5.00000000000000000000e-01) (129, 5, 5.00000000000000000000e-01) (129, 5, 5.00000000000000000000e-01) (129, 5, 5.00000000000000000000e-01) (129, 5, 5.00000000000000000000e-01) (129, 5, 5.00000000000000000000e-01) (129, 5, 5.00000000000000000000e-01) (129, 5, 5.00000000000000000000e-01) (129, 5, 5.00000000000000000000e-01) (129, 5, 5.00000000000000000000e-01) (129, 5, 5.00000000000000000000e-01) (129, 5, 5.00000000000000000000e-01) (129, 5, 5.00000000000000000000e-01) (129, 5, 5.00000000000000000000e-01) (129, 5, 5.00000000000000000000e-01) (129, 5, 5.00000000000000000000e-01) (129, 5, 5.00000000000000000000e-01) (129, 5, 5.00000000000000000000e-01) (129, 5, 5.00000000000000000000e-01) (129, 5, 5.00000000000000000000e-01) (129, 5, 5.00000000000000000000e-01) (129, 5, 5.00000000000000000000e-01) (129, 5, 5.00000000000000000000e-01) (129, 5, 5.00000000000000000000e-01) (129, 5, 5.00000000000000000000e-01) (129, 5, 5.00000000000000000000e-01) (129, 5, 5.00000000000000000000e-01) (129, 5, 5.00000000000000000000e-01) (129, 5, 5.00000000000000000000e-01) (129, 5, 5.00000000000000000000e-01) (129, 5, 5.00000000000000000000e-01) (129, 5, 5.00000000000000000000e-01) (129, 5, 5.00000000000000000000e-01) (129, 5, 5.00000000000000000000e-01) (129, 5, 5.00000000000000000000e-01) (129, 5, 5.00000000000000000000e-01) (129, 5, 5.00000000000000000000e-01) (129, 5, 5.00000000000000000000e-01) (129, 5, 5.00000000000000000000e-01) (129, 5, 5.00000000000000000000e-01) (129, 5, 5.00000000000000000000e-01) (129, 5, 5.00000000000000000000e-01) (129, 5, 5.00000000000000000000e-01) (129, 5, 5.00000000000000000000e-01) (129, 5, 5.00000000000000000000e-01) (0, 5, 0.00000000000000000000e+00) (129, 5, 5.00000000000000000000e-01) (129, 5, 5.00000000000000000000e-01) (129, 5, 5.00000000000000000000e-01) (129, 5, 5.00000000000000000000e-01) (129, 5, 5.00000000000000000000e-01) (129, 5, 5.00000000000000000000e-01) (129, 5, 5.00000000000000000000e-01) (129, 5, 5.00000000000000000000e-01) (129, 5, 5.00000000000000000000e-01) (129, 5, 5.00000000000000000000e-01) (129, 5, 5.00000000000000000000e-01) (129, 5, 5.00000000000000000000e-01) (129, 5, 5.00000000000000000000e-01) (129, 5, 5.00000000000000000000e-01) (129, 5, 5.00000000000000000000e-01) (129, 5, 5.00000000000000000000e-01) (129, 5, 5.00000000000000000000e-01) (129, 5, 5.00000000000000000000e-01) (129, 5, 5.00000000000000000000e-01) (129, 5, 5.00000000000000000000e-01) (129, 5, 5.00000000000000000000e-01) (129, 5, 5.00000000000000000000e-01) (129, 5, 5.00000000000000000000e-01) (129, 5, 5.00000000000000000000e-01) (129, 5, 5.00000000000000000000e-01) (129, 5, 5.00000000000000000000e-01) (129, 5, 5.00000000000000000000e-01) (129, 5, 5.00000000000000000000e-01) (129, 5, 5.00000000000000000000e-01) (129, 5, 5.00000000000000000000e-01) (129, 5, 5.00000000000000000000e-01) (129, 5, 5.00000000000000000000e-01) (129, 5, 5.00000000000000000000e-01) (129, 5, 5.00000000000000000000e-01) (129, 5, 5.00000000000000000000e-01) (129, 5, 5.00000000000000000000e-01) (129, 5, 5.00000000000000000000e-01) (129, 5, 5.00000000000000000000e-01) (129, 5, 5.00000000000000000000e-01) (129, 5, 5.00000000000000000000e-01) (129, 5, 5.00000000000000000000e-01) (129, 5, 5.00000000000000000000e-01) (129, 5, 5.00000000000000000000e-01) (129, 5, 5.00000000000000000000e-01) (129, 5, 5.00000000000000000000e-01) (129, 5, 5.00000000000000000000e-01) (129, 5, 5.00000000000000000000e-01) (129, 5, 5.00000000000000000000e-01) (129, 5, 5.00000000000000000000e-01) (129, 5, 5.00000000000000000000e-01) (129, 5, 5.00000000000000000000e-01) (129, 5, 5.00000000000000000000e-01) (129, 5, 5.00000000000000000000e-01) (129, 5, 5.00000000000000000000e-01) (129, 5, 5.00000000000000000000e-01) (129, 5, 5.00000000000000000000e-01) (129, 5, 5.00000000000000000000e-01) (129, 5, 5.00000000000000000000e-01) (129, 5, 5.00000000000000000000e-01) (129, 5, 5.00000000000000000000e-01) (129, 5, 5.00000000000000000000e-01) (129, 5, 5.00000000000000000000e-01) (129, 5, 5.00000000000000000000e-01) (129, 5, 5.00000000000000000000e-01) (129, 5, 5.00000000000000000000e-01) (129, 5, 5.00000000000000000000e-01) (129, 5, 5.00000000000000000000e-01) (129, 5, 5.00000000000000000000e-01) (129, 5, 5.00000000000000000000e-01) (129, 5, 5.00000000000000000000e-01) (129, 5, 5.00000000000000000000e-01) (129, 5, 5.00000000000000000000e-01) (129, 5, 5.00000000000000000000e-01) (129, 5, 5.00000000000000000000e-01) (129, 5, 5.00000000000000000000e-01) (129, 5, 5.00000000000000000000e-01) (129, 5, 5.00000000000000000000e-01) (129, 5, 5.00000000000000000000e-01) (129, 5, 5.00000000000000000000e-01) (129, 5, 5.00000000000000000000e-01) (129, 5, 5.00000000000000000000e-01) (129, 5, 5.00000000000000000000e-01) (129, 5, 5.00000000000000000000e-01) (129, 5, 5.00000000000000000000e-01) (129, 5, 5.00000000000000000000e-01) (129, 5, 5.00000000000000000000e-01) (129, 5, 5.00000000000000000000e-01) (129, 5, 5.00000000000000000000e-01) (129, 5, 5.00000000000000000000e-01) (129, 5, 5.00000000000000000000e-01) (129, 5, 5.00000000000000000000e-01) (129, 5, 5.00000000000000000000e-01) (129, 5, 5.00000000000000000000e-01) (129, 5, 5.00000000000000000000e-01) (129, 5, 5.00000000000000000000e-01) (129, 5, 5.00000000000000000000e-01) (129, 5, 5.00000000000000000000e-01) (129, 5, 5.00000000000000000000e-01) (129, 5, 5.00000000000000000000e-01) (129, 5, 5.00000000000000000000e-01) (129, 5, 5.00000000000000000000e-01) (129, 5, 5.00000000000000000000e-01) (129, 5, 5.00000000000000000000e-01) (129, 5, 5.00000000000000000000e-01) (129, 5, 5.00000000000000000000e-01) (129, 5, 5.00000000000000000000e-01) (129, 5, 5.00000000000000000000e-01) (129, 5, 5.00000000000000000000e-01) (129, 5, 5.00000000000000000000e-01) (129, 5, 5.00000000000000000000e-01) (129, 5, 5.00000000000000000000e-01) (129, 5, 5.00000000000000000000e-01) (129, 5, 5.00000000000000000000e-01) (129, 5, 5.00000000000000000000e-01) (129, 5, 5.00000000000000000000e-01) (129, 5, 5.00000000000000000000e-01) (129, 5, 5.00000000000000000000e-01) (129, 5, 5.00000000000000000000e-01) (129, 5, 5.00000000000000000000e-01) (129, 5, 5.00000000000000000000e-01) (129, 5, 5.00000000000000000000e-01) (129, 5, 5.00000000000000000000e-01) (129, 5, 5.00000000000000000000e-01) (129, 5, 5.00000000000000000000e-01) (129, 5, 5.00000000000000000000e-01) (129, 5, 5.00000000000000000000e-01) (129, 5, 5.00000000000000000000e-01) (129, 5, 5.00000000000000000000e-01) (0, 5, 0.00000000000000000000e+00) 
connections (connected_to_neuron, weight)=(0, -1.77945584058761596680e-01) (1, -2.46980413794517517090e-01) (2, 2.81058281660079956055e-01) (3, 4.19530034065246582031e-01) (4, 3.07326614856719970703e-01) (5, 3.12842071056365966797e-01) (6, 2.87318408489227294922e-01) (7, 2.66342639923095703125e-01) (8, -2.18799021095037460327e-02) (9, -5.92441484332084655762e-02) (10, -1.38319849967956542969e-01) (11, -1.90362825989723205566e-01) (12, -1.41619011759757995605e-01) (13, -5.28377369046211242676e-02) (14, -3.37764061987400054932e-02) (15, 2.77355402708053588867e-01) (16, 4.98439729213714599609e-01) (17, 4.07599419355392456055e-01) (18, 4.32456016540527343750e-01) (19, 3.42408686876296997070e-01) (20, 4.11560446023941040039e-01) (21, 3.59254807233810424805e-01) (22, 4.94567543268203735352e-01) (23, 3.63082170486450195312e-01) (24, 5.83639383316040039062e-01) (25, 6.10262095928192138672e-01) (26, 6.33467912673950195312e-01) (27, 5.00019431114196777344e-01) (28, 7.00160026550292968750e-01) (29, 5.10422885417938232422e-01) (30, 2.33449816703796386719e-01) (31, 7.55414247512817382812e-01) (32, 5.95633745193481445312e-01) (33, 1.04843201115727424622e-02) (34, 1.07882004231214523315e-02) (35, 6.63655400276184082031e-02) (36, 5.57583905756473541260e-02) (37, 3.96377556025981903076e-02) (38, 7.14324712753295898438e-02) (39, 2.75918990373611450195e-02) (40, 5.99207699298858642578e-01) (41, 8.07596087455749511719e-01) (42, 7.15777873992919921875e-01) (43, 6.96721911430358886719e-01) (44, 7.73826956748962402344e-01) (45, 7.03000307083129882812e-01) (46, 2.14216336607933044434e-01) (47, -4.13805544376373291016e-02) (48, -4.44873142987489700317e-03) (49, -4.82555814087390899658e-02) (50, -8.21537896990776062012e-03) (51, -1.02661043405532836914e-01) (52, 1.22653844300657510757e-03) (53, -2.15868484228849411011e-02) (54, -4.64180670678615570068e-02) (55, -7.33439698815345764160e-02) (56, -1.53445407748222351074e-01) (57, -2.79144018888473510742e-01) (58, -1.34221136569976806641e-01) (59, -6.08430653810501098633e-02) (60, -3.07372480630874633789e-01) (61, -2.60851055383682250977e-01) (62, -1.53855621814727783203e-01) (63, -1.53490617871284484863e-01) (64, -2.93062210083007812500e-01) (65, 3.95345568656921386719e-01) (66, 3.03043127059936523438e-01) (67, 4.09684985876083374023e-01) (68, 2.77917146682739257812e-01) (69, 4.13181394338607788086e-01) (70, 2.79654324054718017578e-01) (71, -1.78215771913528442383e-01) (72, -4.22875061631202697754e-02) (73, -1.01866453886032104492e-01) (74, -1.20295003056526184082e-01) (75, -1.21203556656837463379e-01) (76, -2.13680453598499298096e-02) (77, 1.49709284305572509766e-01) (78, 1.81621879339218139648e-01) (79, 4.87562924623489379883e-01) (80, 3.56596916913986206055e-01) (81, 3.25816035270690917969e-01) (82, 3.69210004806518554688e-01) (83, 3.42361956834793090820e-01) (84, 4.87884491682052612305e-01) (85, 5.04397451877593994141e-01) (86, 3.15028309822082519531e-01) (87, 4.40333425998687744141e-01) (88, 5.66238760948181152344e-01) (89, 6.99861347675323486328e-01) (90, 5.18856346607208251953e-01) (91, 7.15107500553131103516e-01) (92, 5.59417068958282470703e-01) (93, 5.70820868015289306641e-01) (94, 7.28242933750152587891e-01) (95, 5.92030167579650878906e-01) (96, 2.05657035112380981445e-02) (97, 6.96509927511215209961e-02) (98, -3.62990610301494598389e-02) (99, 3.09148821979761123657e-02) (100, 2.43635568767786026001e-02) (101, -1.79204605519771575928e-02) (102, 4.64123301208019256592e-02) (103, 5.82979381084442138672e-01) (104, 7.54696607589721679688e-01) (105, 8.04666280746459960938e-01) (106, 7.18819856643676757812e-01) (107, 7.52397179603576660156e-01) (108, 7.17368245124816894531e-01) (109, 1.14736005663871765137e-01) (110, -7.33212232589721679688e-02) (111, -4.10832017660140991211e-02) (112, -2.85315029323101043701e-02) (113, -1.37207265943288803101e-02) (114, -8.49392637610435485840e-03) (115, -5.04197180271148681641e-02) (116, -1.67334303259849548340e-02) (117, -3.04835906717926263809e-04) (118, -6.82955160737037658691e-02) (119, -1.92615255713462829590e-01) (120, -1.66637599468231201172e-01) (121, -3.06903064250946044922e-01) (122, -2.18403279781341552734e-01) (123, -2.01872885227203369141e-01) (124, 1.42191186547279357910e-01) (125, -3.09378743171691894531e-01) (126, -2.53013968467712402344e-01) (127, 4.41029489040374755859e-01) (128, -5.14711797237396240234e-01) (0, -3.18908512592315673828e-01) (1, -7.15318769216537475586e-02) (2, -1.22455663979053497314e-01) (3, -7.18321502208709716797e-02) (4, 1.22894179075956344604e-02) (5, -1.12044371664524078369e-01) (6, -4.12652157247066497803e-02) (7, -2.28021457791328430176e-01) (8, 1.56771421432495117188e-01) (9, -1.19314191397279500961e-03) (10, 9.04965698719024658203e-02) (11, -2.21288934350013732910e-01) (12, -7.57012143731117248535e-02) (13, 5.07065281271934509277e-02) (14, -1.16672284901142120361e-01) (15, -1.14497207105159759521e-01) (16, 1.60907842218875885010e-02) (17, 1.53698073700070381165e-02) (18, 5.05111292004585266113e-02) (19, -1.40456680674105882645e-03) (20, -4.34310361742973327637e-03) (21, -1.21813200414180755615e-01) (22, -2.53405887633562088013e-02) (23, 5.45829068869352340698e-03) (24, 8.49149450659751892090e-02) (25, -1.77960889413952827454e-03) (26, -2.33771614730358123779e-02) (27, -8.08083713054656982422e-02) (28, 6.94186568260192871094e-01) (29, 6.14833593368530273438e-01) (30, 7.21799015998840332031e-01) (31, 7.29215741157531738281e-01) (32, 6.68739676475524902344e-01) (33, 5.53225517272949218750e-01) (34, 3.92877876758575439453e-01) (35, 4.08666878938674926758e-01) (36, 7.64741957187652587891e-01) (37, 4.88493323326110839844e-01) (38, 7.01874494552612304688e-01) (39, 5.09915411472320556641e-01) (40, 5.36125779151916503906e-01) (41, 5.35065770149230957031e-01) (42, 5.80702483654022216797e-01) (43, 7.19274699687957763672e-01) (44, 3.84599119424819946289e-01) (45, 3.80495607852935791016e-01) (46, 4.34516519308090209961e-01) (47, 3.35946202278137207031e-01) (48, 3.33317637443542480469e-01) (49, 4.15589213371276855469e-01) (50, 2.63501971960067749023e-01) (51, 2.56477206945419311523e-01) (52, 4.21679228544235229492e-01) (53, 3.67410540580749511719e-01) (54, 3.92335057258605957031e-01) (55, 3.47251504659652709961e-01) (56, 2.04942777752876281738e-01) (57, 2.08269745111465454102e-01) (58, 3.52023988962173461914e-01) (59, -2.26843386888504028320e-01) (60, -2.99050569534301757812e-01) (61, -2.45849370956420898438e-01) (62, -2.66002714633941650391e-01) (63, -2.01037392020225524902e-01) (64, -5.17808608710765838623e-02) (65, -2.25201528519392013550e-02) (66, 6.22741952538490295410e-02) (67, -8.27560722827911376953e-02) (68, -1.62415893282741308212e-03) (69, -4.69083264470100402832e-02) (70, -8.70013516396284103394e-03) (71, 1.03617832064628601074e-01) (72, 1.95769127458333969116e-02) (73, 1.43553808331489562988e-01) (74, -2.19816684722900390625e-01) (75, -1.34770330041646957397e-02) (76, -8.72488394379615783691e-02) (77, -7.24446028470993041992e-02) (78, -1.23407445847988128662e-01) (79, -1.32485432550311088562e-03) (80, -9.64759215712547302246e-02) (81, -9.93628129363059997559e-02) (82, 1.83204375207424163818e-02) (83, -1.10260784626007080078e-01) (84, 3.00266370177268981934e-02) (85, -2.84579806029796600342e-02) (86, 4.39834892749786376953e-02) (87, 8.66455510258674621582e-02) (88, 3.14879193902015686035e-02) (89, 4.78472895920276641846e-02) (90, 6.86402618885040283203e-01) (91, 7.52357840538024902344e-01) (92, 6.15618169307708740234e-01) (93, 7.67084836959838867188e-01) (94, 7.05257833003997802734e-01) (95, 4.59155529737472534180e-01) (96, 4.98446822166442871094e-01) (97, 5.03026127815246582031e-01) (98, 5.33628940582275390625e-01) (99, 5.11020421981811523438e-01) (100, 5.61140596866607666016e-01) (101, 6.02264106273651123047e-01) (102, 5.20591557025909423828e-01) (103, 4.42645430564880371094e-01) (104, 5.05974411964416503906e-01) (105, 6.54750585556030273438e-01) (106, 3.67099612951278686523e-01) (107, 2.32460021972656250000e-01) (108, 2.36871823668479919434e-01) (109, 3.77893835306167602539e-01) (110, 3.66391241550445556641e-01) (111, 2.78658360242843627930e-01) (112, 4.09092545509338378906e-01) (113, 3.13381344079971313477e-01) (114, 2.95089781284332275391e-01) (115, 3.68368387222290039062e-01) (116, 4.14463162422180175781e-01) (117, 2.69472926855087280273e-01) (118, 2.94325321912765502930e-01) (119, 2.85262435674667358398e-01) (120, 3.56631606817245483398e-01) (121, 1.99373483657836914062e-01) (122, -2.88352429866790771484e-01) (123, -3.49903643131256103516e-01) (124, -3.53215038776397705078e-01) (125, -3.51469278335571289062e-01) (126, -2.31354907155036926270e-01) (127, -1.39247393235564231873e-02) (128, -2.86661647260189056396e-02) (0, 3.60949754714965820312e-01) (1, 6.12541437149047851562e-01) (2, 4.95732963085174560547e-01) (3, 6.10062777996063232422e-01) (4, 5.36711215972900390625e-01) (5, 5.79914450645446777344e-01) (6, 6.84761643409729003906e-01) (7, 7.10920393466949462891e-01) (8, 3.97018522024154663086e-01) (9, 6.25280320644378662109e-01) (10, 4.41021621227264404297e-01) (11, 5.61638772487640380859e-01) (12, 9.39844965934753417969e-01) (13, 5.97740352153778076172e-01) (14, 1.43449261784553527832e-01) (15, 1.85567706823348999023e-01) (16, 1.24934159219264984131e-01) (17, 2.79007792472839355469e-01) (18, 3.89801174402236938477e-01) (19, 4.84136730432510375977e-01) (20, 4.90532159805297851562e-01) (21, 3.56598198413848876953e-01) (22, 5.34491956233978271484e-01) (23, 5.85837066173553466797e-01) (24, 5.53836464881896972656e-01) (25, 5.48873007297515869141e-01) (26, 6.12052857875823974609e-01) (27, 5.77178478240966796875e-01) (28, 4.92900967597961425781e-01) (29, 5.21786212921142578125e-01) (30, -5.50056211650371551514e-02) (31, 5.88640235364437103271e-02) (32, -6.14753291010856628418e-02) (33, -1.80907413363456726074e-01) (34, -6.25834316015243530273e-02) (35, -2.13594824075698852539e-01) (36, -1.76735192537307739258e-01) (37, -2.35896036028861999512e-01) (38, -2.72473990917205810547e-01) (39, -1.73839971423149108887e-01) (40, -1.77056357264518737793e-01) (41, -1.36094272136688232422e-01) (42, -1.61631986498832702637e-01) (43, -7.74787664413452148438e-02) (44, -3.83289843797683715820e-01) (45, 4.29894715547561645508e-01) (46, 4.26473826169967651367e-01) (47, 4.23332154750823974609e-01) (48, -6.80837109684944152832e-02) (49, -2.92193349450826644897e-02) (50, -4.92677539587020874023e-02) (51, -1.19786998257040977478e-02) (52, -6.90756142139434814453e-02) (53, -2.71237671375274658203e-01) (54, -1.82236015796661376953e-01) (55, -2.78161078691482543945e-01) (56, -1.66481137275695800781e-01) (57, -2.44831129908561706543e-01) (58, -1.75630465149879455566e-01) (59, -1.44812718033790588379e-01) (60, -1.81373193860054016113e-01) (61, -1.22564323246479034424e-01) (62, 3.52794945240020751953e-01) (63, 3.95574927330017089844e-01) (64, 5.26960015296936035156e-01) (65, 6.65907382965087890625e-01) (66, 5.89176952838897705078e-01) (67, 6.83153569698333740234e-01) (68, 5.87110519409179687500e-01) (69, 5.24686813354492187500e-01) (70, 6.29066646099090576172e-01) (71, 5.76444983482360839844e-01) (72, 4.74483191967010498047e-01) (73, 5.96352696418762207031e-01) (74, 4.57480967044830322266e-01) (75, 9.62744474411010742188e-01) (76, 7.01969981193542480469e-01) (77, 1.72863587737083435059e-01) (78, 1.16317577660083770752e-01) (79, 1.94502934813499450684e-01) (80, 4.31900113821029663086e-01) (81, 3.68737906217575073242e-01) (82, 4.63796317577362060547e-01) (83, 4.33904916048049926758e-01) (84, 4.69109147787094116211e-01) (85, 4.52681720256805419922e-01) (86, 5.29073953628540039062e-01) (87, 5.96428096294403076172e-01) (88, 5.14555335044860839844e-01) (89, 4.77774113416671752930e-01) (90, 5.71326851844787597656e-01) (91, 6.52893722057342529297e-01) (92, 6.57295227050781250000e-01) (93, 8.60425978899002075195e-02) (94, 5.34813664853572845459e-02) (95, -1.15478588268160820007e-02) (96, -6.96848034858703613281e-02) (97, -8.88520181179046630859e-02) (98, -2.17225000262260437012e-01) (99, -2.58316755294799804688e-01) (100, -2.22239360213279724121e-01) (101, -1.56443268060684204102e-01) (102, -1.53603777289390563965e-01) (103, -8.99654328823089599609e-02) (104, -7.67935514450073242188e-02) (105, 1.16535918787121772766e-02) (106, -4.33779209852218627930e-01) (107, 4.52024722471833229065e-03) (108, 3.80062043666839599609e-01) (109, 4.68486487865447998047e-01) (110, 2.71890461444854736328e-01) (111, 3.36792320013046264648e-02) (112, 8.31004604697227478027e-02) (113, -2.04990170896053314209e-02) (114, 3.53649742901325225830e-02) (115, 3.44494618475437164307e-02) (116, -1.24278709292411804199e-01) (117, -1.93863362073898315430e-01) (118, -1.32044360041618347168e-01) (119, -2.53839850425720214844e-01) (120, -1.90736725926399230957e-01) (121, -2.35365405678749084473e-01) (122, -2.72179275751113891602e-01) (123, -1.91769883036613464355e-01) (124, 3.63549053668975830078e-01) (125, 4.20045852661132812500e-01) (126, 4.35105741024017333984e-01) (127, 5.19495844841003417969e-01) (128, -2.02741205692291259766e-01) (0, 1.25436052680015563965e-01) (1, 2.17959821224212646484e-01) (2, 2.43239849805831909180e-01) (3, 8.05283665657043457031e-01) (4, 1.02976810932159423828e+00) (5, 1.02462017536163330078e+00) (6, 5.47488927841186523438e-01) (7, 7.77927577495574951172e-01) (8, 5.24123370647430419922e-01) (9, 6.67345285415649414062e-01) (10, 6.66000485420227050781e-01) (11, 8.17685127258300781250e-01) (12, 9.75149035453796386719e-01) (13, 8.56846511363983154297e-01) (14, 9.88496005535125732422e-01) (15, 9.10326242446899414062e-01) (16, 8.55442047119140625000e-01) (17, 9.80501890182495117188e-01) (18, 8.77987921237945556641e-01) (19, 2.59082615375518798828e-01) (20, 2.56194055080413818359e-01) (21, 2.28934094309806823730e-01) (22, 1.75574243068695068359e-01) (23, 4.08335030078887939453e-02) (24, 1.76759690046310424805e-01) (25, 2.03809157013893127441e-01) (26, 1.01667419075965881348e-01) (27, 1.25126555562019348145e-01) (28, 1.69031679630279541016e-01) (29, 1.25246912240982055664e-01) (30, 1.33543729782104492188e-01) (31, 1.42808690667152404785e-01) (32, 2.31537651270627975464e-02) (33, 5.22053167223930358887e-02) (34, -3.19392591714859008789e-01) (35, -3.47070634365081787109e-01) (36, -5.77834129333496093750e-01) (37, -3.44512730836868286133e-01) (38, -2.15144008398056030273e-01) (39, -1.58279657363891601562e-01) (40, -1.36611253023147583008e-01) (41, -1.39561071991920471191e-01) (42, -1.72889724373817443848e-01) (43, -3.38212788105010986328e-01) (44, -3.67082178592681884766e-01) (45, -4.89966928958892822266e-01) (46, -4.62797403335571289062e-01) (47, -3.05681705474853515625e-01) (48, -4.88999068737030029297e-01) (49, -3.83505880832672119141e-01) (50, -3.61430257558822631836e-01) (51, 1.77867189049720764160e-01) (52, 5.78871145844459533691e-02) (53, 3.10389287769794464111e-02) (54, 1.94545105099678039551e-01) (55, 2.83931195735931396484e-01) (56, 2.84132480621337890625e-01) (57, 1.45496979355812072754e-01) (58, 1.84902206063270568848e-01) (59, 2.26826146245002746582e-01) (60, 3.01129102706909179688e-01) (61, 1.50027483701705932617e-01) (62, 2.07273244857788085938e-01) (63, 3.19783985614776611328e-01) (64, 2.00286775827407836914e-01) (65, 3.01483869552612304688e-01) (66, 7.18758106231689453125e-01) (67, 1.15515041351318359375e+00) (68, 1.13164091110229492188e+00) (69, 6.34149491786956787109e-01) (70, 9.01662886142730712891e-01) (71, 5.08141577243804931641e-01) (72, 5.31089961528778076172e-01) (73, 5.54261982440948486328e-01) (74, 9.59850549697875976562e-01) (75, 6.91912114620208740234e-01) (76, 9.72821295261383056641e-01) (77, 7.94907152652740478516e-01) (78, 9.03685092926025390625e-01) (79, 9.81294393539428710938e-01) (80, 9.05489325523376464844e-01) (81, 8.52942526340484619141e-01) (82, 2.52282202243804931641e-01) (83, 2.66729742288589477539e-01) (84, 1.80969402194023132324e-01) (85, 2.33352854847908020020e-01) (86, 1.76523089408874511719e-01) (87, 9.09638553857803344727e-02) (88, 2.04711779952049255371e-01) (89, 6.93672001361846923828e-02) (90, 2.53726039081811904907e-02) (91, 1.84139147400856018066e-01) (92, 7.27957710623741149902e-02) (93, 8.18433538079261779785e-02) (94, 1.57018706202507019043e-01) (95, 1.53029575943946838379e-01) (96, 5.87490312755107879639e-02) (97, -3.93615424633026123047e-01) (98, -2.90660083293914794922e-01) (99, -6.64269447326660156250e-01) (100, -3.33030134439468383789e-01) (101, 2.54267573356628417969e-01) (102, -3.52189242839813232422e-02) (103, -6.30433633923530578613e-02) (104, -2.11110144853591918945e-01) (105, -3.71905177831649780273e-01) (106, -3.07610929012298583984e-01) (107, -4.55523639917373657227e-01) (108, -4.42534059286117553711e-01) (109, -4.38836604356765747070e-01) (110, -4.76002752780914306641e-01) (111, -3.16578775644302368164e-01) (112, -3.84590506553649902344e-01) (113, -3.30819875001907348633e-01) (114, 1.60823240876197814941e-01) (115, 2.08837881684303283691e-01) (116, 1.19427949190139770508e-01) (117, 1.86630710959434509277e-01) (118, 1.49086162447929382324e-01) (119, 1.73424199223518371582e-01) (120, 2.31842353940010070801e-01) (121, 1.51049226522445678711e-01) (122, 1.30257904529571533203e-01) (123, 1.35023415088653564453e-01) (124, 2.65664279460906982422e-01) (125, 3.23020070791244506836e-01) (126, 2.83554017543792724609e-01) (127, 3.21277081966400146484e-01) (128, -2.21329426765441894531e+00) (0, 2.04241216182708740234e-01) (1, -9.62180271744728088379e-02) (2, -1.02231159806251525879e-01) (3, 5.96099421381950378418e-02) (4, -1.52435060590505599976e-02) (5, -1.01842001080513000488e-01) (6, -1.07001222670078277588e-01) (7, 4.50444780290126800537e-03) (8, 8.42758268117904663086e-03) (9, -8.50055590271949768066e-02) (10, -5.55820949375629425049e-02) (11, 8.06139037013053894043e-02) (12, -5.30190505087375640869e-02) (13, 2.07160666584968566895e-01) (14, 1.25605195760726928711e-01) (15, 2.22100451588630676270e-01) (16, 2.30515420436859130859e-01) (17, 3.34089040756225585938e-01) (18, 2.12053120136260986328e-01) (19, 4.11139093339443206787e-02) (20, -2.75684803724288940430e-01) (21, -4.44767564535140991211e-01) (22, -2.89952427148818969727e-01) (23, 1.14876620471477508545e-01) (24, 1.64247468113899230957e-01) (25, -2.64102637767791748047e-01) (26, -2.83169358968734741211e-01) (27, -3.78782898187637329102e-01) (28, -2.83807337284088134766e-01) (29, 6.51480734348297119141e-01) (30, 1.53834611177444458008e-01) (31, 1.02350004017353057861e-01) (32, 2.38814532756805419922e-01) (33, 3.43549370765686035156e-01) (34, 4.53894853591918945312e-01) (35, 3.15207719802856445312e-01) (36, 3.44589084386825561523e-01) (37, 5.22644340991973876953e-01) (38, 5.53980648517608642578e-01) (39, 3.74228298664093017578e-01) (40, 3.94137352705001831055e-01) (41, 5.10947227478027343750e-01) (42, 3.29059869050979614258e-01) (43, 4.31540340185165405273e-01) (44, 5.12153506278991699219e-01) (45, 3.36462616920471191406e-01) (46, 1.96358621120452880859e-01) (47, 1.57081559300422668457e-01) (48, 7.98512041568756103516e-01) (49, 4.77318018674850463867e-01) (50, 5.67548513412475585938e-01) (51, 1.64040386676788330078e+00) (52, 1.59760546684265136719e+00) (53, 1.52269458770751953125e+00) (54, 8.07292580604553222656e-01) (55, 7.74161458015441894531e-01) (56, 1.28164970874786376953e+00) (57, 1.31992506980895996094e+00) (58, 1.22448861598968505859e+00) (59, 1.21261250972747802734e+00) (60, 5.28936786577105522156e-03) (61, 3.58277373015880584717e-02) (62, 1.45960330963134765625e-01) (63, 1.41134127974510192871e-01) (64, 6.07253387570381164551e-02) (65, -9.11355540156364440918e-02) (66, -3.48629504442214965820e-02) (67, -6.23604729771614074707e-02) (68, -9.39277634024620056152e-02) (69, -7.93828293681144714355e-02) (70, -8.65708813071250915527e-02) (71, -7.88676068186759948730e-02) (72, -4.45967074483633041382e-03) (73, -6.55325269326567649841e-03) (74, 4.34919483959674835205e-02) (75, -8.02697315812110900879e-02) (76, 1.79740861058235168457e-01) (77, 1.14649742841720581055e-01) (78, 2.78984159231185913086e-01) (79, 7.08222270011901855469e-01) (80, 4.13682222366333007812e-01) (81, 1.28365948796272277832e-01) (82, 2.18128673732280731201e-02) (83, -3.91579449176788330078e-01) (84, -2.88617283105850219727e-01) (85, 1.35742425918579101562e-01) (86, 1.40987619757652282715e-01) (87, 1.51111438870429992676e-01) (88, -2.56559014320373535156e-01) (89, -3.80943208932876586914e-01) (90, -4.07579421997070312500e-01) (91, 5.48938810825347900391e-01) (92, 6.44210278987884521484e-01) (93, 1.62000745534896850586e-01) (94, 1.47609114646911621094e-01) (95, 1.85146167874336242676e-01) (96, 3.62811118364334106445e-01) (97, 4.05528694391250610352e-01) (98, 4.17763650417327880859e-01) (99, 3.71765047311782836914e-01) (100, 5.22872865200042724609e-01) (101, 3.65461379289627075195e-01) (102, 5.14108836650848388672e-01) (103, 4.07894462347030639648e-01) (104, 3.71456742286682128906e-01) (105, 4.31818753480911254883e-01) (106, 4.18046802282333374023e-01) (107, 3.44773948192596435547e-01) (108, 4.28266137838363647461e-01) (109, 3.82807582616806030273e-01) (110, 4.97414350509643554688e-01) (111, 4.43508058786392211914e-01) (112, 5.14602482318878173828e-01) (113, 5.14216423034667968750e-01) (114, 1.50690364837646484375e+00) (115, 1.59103977680206298828e+00) (116, 1.61859989166259765625e+00) (117, 7.26063251495361328125e-01) (118, 7.54459619522094726562e-01) (119, 1.34269332885742187500e+00) (120, 1.34347426891326904297e+00) (121, 1.40226244926452636719e+00) (122, 1.38286983966827392578e+00) (123, 2.15681158006191253662e-02) (124, 2.82234638929367065430e-01) (125, 1.62324413657188415527e-01) (126, 3.07085514068603515625e-01) (127, 6.59271553158760070801e-02) (128, -1.07750403881072998047e+00) (0, 3.80924297496676445007e-03) (1, -6.34985342621803283691e-02) (2, 1.37019217014312744141e-01) (3, 1.58545300364494323730e-02) (4, -3.93558979034423828125e-01) (5, -1.98390766978263854980e-01) (6, -3.01343649625778198242e-02) (7, -9.77080315351486206055e-02) (8, -1.56947448849678039551e-01) (9, -2.66552180051803588867e-01) (10, -1.51873037219047546387e-01) (11, -1.19575783610343933105e-01) (12, -9.75931212306022644043e-02) (13, -1.84199705719947814941e-01) (14, 3.23883801698684692383e-01) (15, 3.10873836278915405273e-01) (16, 3.90025973320007324219e-01) (17, 4.18568581342697143555e-01) (18, 2.60325580835342407227e-01) (19, 2.72458404302597045898e-01) (20, 3.60153347253799438477e-01) (21, 3.91636818647384643555e-01) (22, 4.08535748720169067383e-01) (23, 3.55018973350524902344e-01) (24, 3.68275105953216552734e-01) (25, 2.88281977176666259766e-01) (26, 4.28707152605056762695e-01) (27, 4.14150595664978027344e-01) (28, 2.77775734663009643555e-01) (29, 3.19953083992004394531e-01) (30, 3.61252725124359130859e-01) (31, 4.05787706375122070312e-01) (32, 3.00929844379425048828e-01) (33, 3.79980087280273437500e-01) (34, 5.32240092754364013672e-01) (35, 4.75091934204101562500e-01) (36, 5.47999918460845947266e-01) (37, 4.95179086923599243164e-01) (38, 5.72964847087860107422e-01) (39, 4.66194182634353637695e-01) (40, 5.62394261360168457031e-01) (41, 5.54858028888702392578e-01) (42, 4.80384826660156250000e-01) (43, 5.49001157283782958984e-01) (44, 4.57509785890579223633e-01) (45, -1.39189255423843860626e-03) (46, 4.99852411448955535889e-02) (47, 3.49945425987243652344e-02) (48, -3.11978254467248916626e-02) (49, 6.19363300502300262451e-02) (50, 5.90784847736358642578e-02) (51, 8.05810093879699707031e-02) (52, 5.19865239039063453674e-03) (53, 1.92397199571132659912e-02) (54, -1.27745242789387702942e-02) (55, -7.49008059501647949219e-02) (56, 5.91471940279006958008e-02) (57, -2.77769081294536590576e-02) (58, 9.15705934166908264160e-02) (59, 8.42265039682388305664e-02) (60, -7.94812068343162536621e-02) (61, -9.89139545708894729614e-03) (62, -1.72235462814569473267e-02) (63, -7.82400444149971008301e-02) (64, -1.11745618283748626709e-01) (65, 1.95013713091611862183e-02) (66, -1.72304082661867141724e-02) (67, -4.01571154594421386719e-01) (68, -5.80172613263130187988e-02) (69, -1.39424011111259460449e-01) (70, -1.36038288474082946777e-01) (71, -1.96282938122749328613e-01) (72, -8.52261707186698913574e-02) (73, -1.56312361359596252441e-01) (74, -9.23331230878829956055e-02) (75, -8.74335169792175292969e-02) (76, -2.53255069255828857422e-01) (77, 3.81372898817062377930e-01) (78, 3.83296340703964233398e-01) (79, 3.51282656192779541016e-01) (80, 3.50698053836822509766e-01) (81, 3.49763631820678710938e-01) (82, 3.39252471923828125000e-01) (83, 2.63285458087921142578e-01) (84, 2.76392102241516113281e-01) (85, 4.33866739273071289062e-01) (86, 2.95773476362228393555e-01) (87, 4.42928165197372436523e-01) (88, 3.11089605093002319336e-01) (89, 2.90067911148071289062e-01) (90, 4.39233332872390747070e-01) (91, 3.42201411724090576172e-01) (92, 3.55136483907699584961e-01) (93, 3.65804612636566162109e-01) (94, 3.88350665569305419922e-01) (95, 3.06742191314697265625e-01) (96, 2.70573109388351440430e-01) (97, 4.82199549674987792969e-01) (98, 4.90824639797210693359e-01) (99, 5.79436242580413818359e-01) (100, 5.35368502140045166016e-01) (101, 5.50367116928100585938e-01) (102, 5.14663755893707275391e-01) (103, 5.83908736705780029297e-01) (104, 5.27820944786071777344e-01) (105, 4.90286976099014282227e-01) (106, 5.83326995372772216797e-01) (107, 5.61417937278747558594e-01) (108, 6.59993588924407958984e-02) (109, -4.59181182086467742920e-02) (110, -9.98409092426300048828e-02) (111, -3.16771380603313446045e-02) (112, 5.54709732532501220703e-02) (113, -8.96293018013238906860e-03) (114, -1.67661625891923904419e-02) (115, 8.34885835647583007812e-02) (116, -2.34707333147525787354e-02) (117, 3.06328255683183670044e-02) (118, 7.80421942472457885742e-02) (119, 3.92443463206291198730e-02) (120, 7.69912302494049072266e-02) (121, 6.46505430340766906738e-02) (122, -7.02961608767509460449e-02) (123, 5.82357421517372131348e-02) (124, -2.73137763142585754395e-02) (125, 6.97590708732604980469e-02) (126, -1.41287103295326232910e-01) (127, -3.79883646965026855469e-02) (128, -1.61592483520507812500e+00) (0, 1.23949207365512847900e-01) (1, 1.63606479763984680176e-01) (2, 2.24713981151580810547e-01) (3, 8.08994993567466735840e-02) (4, 2.37739518284797668457e-01) (5, 1.68092042207717895508e-01) (6, 4.96761828660964965820e-01) (7, 1.96888923645019531250e-01) (8, 1.22802592813968658447e-02) (9, -1.28622045740485191345e-02) (10, -2.46161278337240219116e-02) (11, 7.20475912094116210938e-02) (12, -1.83517914265394210815e-02) (13, 1.86796300113201141357e-02) (14, 2.77044270187616348267e-02) (15, 1.06822378933429718018e-01) (16, 1.02281413972377777100e-01) (17, -1.03684226050972938538e-02) (18, -5.72435818612575531006e-02) (19, 8.30570310354232788086e-02) (20, 1.70111343264579772949e-01) (21, 2.85638093948364257812e-01) (22, 2.16091796755790710449e-01) (23, 1.46770998835563659668e-01) (24, 2.67123699188232421875e-01) (25, 3.37032936513423919678e-02) (26, 1.23420968651771545410e-01) (27, 1.65610820055007934570e-01) (28, 6.44340738654136657715e-02) (29, -4.93433028459548950195e-01) (30, 1.11427676677703857422e+00) (31, 4.82115775346755981445e-01) (32, 3.33012968301773071289e-01) (33, 3.39229792356491088867e-01) (34, 5.23748159408569335938e-01) (35, 5.11725783348083496094e-01) (36, 4.48295205831527709961e-01) (37, 4.32974725961685180664e-01) (38, 2.88914479315280914307e-02) (39, 8.82887989282608032227e-02) (40, 3.20427238941192626953e-01) (41, 1.97797745466232299805e-01) (42, 2.66462475061416625977e-01) (43, 3.76291334629058837891e-01) (44, 3.35047930479049682617e-01) (45, 3.44437777996063232422e-01) (46, 2.76909083127975463867e-01) (47, 2.45545849204063415527e-01) (48, 2.24799767136573791504e-01) (49, 3.29722106456756591797e-01) (50, 3.57690662145614624023e-01) (51, 1.32539242506027221680e-01) (52, 1.47221729159355163574e-01) (53, 1.39403507113456726074e-01) (54, 1.51199206709861755371e-01) (55, 2.11736157536506652832e-01) (56, 2.60925680398941040039e-01) (57, 2.14081704616546630859e-01) (58, 2.50310927629470825195e-01) (59, 1.36546507477760314941e-01) (60, 9.86974358558654785156e-01) (61, 1.75497889518737792969e-01) (62, 1.98742389678955078125e-01) (63, 1.62340119481086730957e-01) (64, 1.49895727634429931641e-01) (65, 1.97989821434020996094e-01) (66, 1.69072538614273071289e-01) (67, 9.31973680853843688965e-02) (68, 1.25970959663391113281e-01) (69, 5.23810863494873046875e-01) (70, 2.71135836839675903320e-01) (71, -1.39497676864266395569e-02) (72, 1.37486979365348815918e-01) (73, 7.83271789550781250000e-02) (74, 1.54882580041885375977e-01) (75, 2.66330167651176452637e-02) (76, 7.11268931627273559570e-03) (77, 7.52877742052078247070e-02) (78, 1.35334581136703491211e-01) (79, 1.72954127192497253418e-02) (80, -5.52487708628177642822e-02) (81, 6.95239007472991943359e-02) (82, 2.71104723215103149414e-01) (83, 2.18382164835929870605e-01) (84, 1.37148573994636535645e-01) (85, 1.58708646893501281738e-01) (86, 2.98693001270294189453e-01) (87, 2.07330584526062011719e-01) (88, 3.90343293547630310059e-02) (89, 1.65805630385875701904e-02) (90, 1.31810605525970458984e-01) (91, 1.65336027741432189941e-01) (92, 1.06941098347306251526e-02) (93, 1.18433833122253417969e+00) (94, 4.21408504247665405273e-01) (95, 3.67849081754684448242e-01) (96, 3.82567018270492553711e-01) (97, 3.41594159603118896484e-01) (98, 4.02019888162612915039e-01) (99, 4.49511438608169555664e-01) (100, 4.77869480848312377930e-01) (101, 1.13752655684947967529e-01) (102, 6.34546577930450439453e-02) (103, 3.16591084003448486328e-01) (104, 1.90373048186302185059e-01) (105, 3.28280806541442871094e-01) (106, 2.21215426921844482422e-01) (107, 3.12430828809738159180e-01) (108, 2.34201967716217041016e-01) (109, 3.51905882358551025391e-01) (110, 3.40907424688339233398e-01) (111, 2.69683629274368286133e-01) (112, 3.31486344337463378906e-01) (113, 2.94113159179687500000e-01) (114, 2.25693956017494201660e-01) (115, 2.00496152043342590332e-01) (116, 2.18442812561988830566e-01) (117, 1.96276113390922546387e-01) (118, 2.05054089426994323730e-01) (119, 1.44207179546356201172e-01) (120, 3.52317959070205688477e-01) (121, 1.97458177804946899414e-01) (122, 3.20729434490203857422e-01) (123, 9.73757743835449218750e-01) (124, 1.92706346511840820312e-01) (125, 1.22218266129493713379e-01) (126, 1.83959603309631347656e-01) (127, 2.10441410541534423828e-01) (128, -1.66480064392089843750e-01) (0, -4.33192355558276176453e-03) (1, 2.89987182617187500000e+00) (2, 5.91026842594146728516e-01) (3, 1.84205502271652221680e-01) (4, -1.69885799288749694824e-01) (5, -5.10390460491180419922e-01) (6, -3.47153842449188232422e-01) (7, -5.02392232418060302734e-01) (8, -5.00496864318847656250e-01) (9, -4.71055775880813598633e-01) (10, -4.78134900331497192383e-01) (11, -6.61048650741577148438e-01) (12, -1.99538562446832656860e-02) (13, 1.60343706607818603516e-01) (14, 1.65091902017593383789e-01) (15, 1.86627805233001708984e-01) (16, 1.16906091570854187012e-01) (17, 9.69484746456146240234e-02) (18, 1.37043073773384094238e-01) (19, 4.61907684803009033203e-02) (20, 1.68513923883438110352e-01) (21, 5.07973611354827880859e-01) (22, 5.73537111282348632812e-01) (23, 5.41000247001647949219e-01) (24, 4.94171649217605590820e-01) (25, 4.74351793527603149414e-01) (26, 4.53578740358352661133e-01) (27, 5.45950412750244140625e-01) (28, 3.88555139303207397461e-01) (29, 3.65956217050552368164e-01) (30, 4.07555311918258666992e-01) (31, 3.61757397651672363281e-01) (32, -2.48578712344169616699e-01) (33, -8.05238634347915649414e-02) (34, 6.33997023105621337891e-01) (35, 6.13420367240905761719e-01) (36, 1.00830304622650146484e+00) (37, 1.02513933181762695312e+00) (38, 1.07065224647521972656e+00) (39, 1.04452931880950927734e+00) (40, 8.92220735549926757812e-01) (41, 9.44514572620391845703e-01) (42, 1.06268823146820068359e+00) (43, 2.34961658716201782227e-01) (44, 3.71166527271270751953e-01) (45, 2.04003423452377319336e-01) (46, 2.95280426740646362305e-01) (47, 1.62052422761917114258e-01) (48, 2.57792443037033081055e-01) (49, 1.89164370298385620117e-01) (50, 1.65083944797515869141e-01) (51, 1.83147251605987548828e-01) (52, -3.24030444025993347168e-02) (53, -1.84255003929138183594e-01) (54, -1.98728621006011962891e-01) (55, -1.36171430349349975586e-01) (56, -1.13824397325515747070e-01) (57, -1.48458927869796752930e-01) (58, -1.23531222343444824219e-01) (59, -5.85786551237106323242e-02) (60, -4.42504175007343292236e-02) (61, 1.72721836715936660767e-02) (62, 6.59768432378768920898e-02) (63, 3.13799053430557250977e-01) (64, 1.48758590221405029297e+00) (65, 6.53348445892333984375e-01) (66, 2.27752760052680969238e-01) (67, -4.74527403712272644043e-02) (68, -4.13505494594573974609e-01) (69, -3.27473372220993041992e-01) (70, -3.68382126092910766602e-01) (71, -4.20577406883239746094e-01) (72, -4.88544851541519165039e-01) (73, -4.33858633041381835938e-01) (74, -5.28854548931121826172e-01) (75, -4.05688472092151641846e-02) (76, 2.32906639575958251953e-01) (77, 1.53899550437927246094e-01) (78, 8.94358307123184204102e-02) (79, 1.71079605817794799805e-01) (80, 2.23444253206253051758e-01) (81, 1.34900152683258056641e-01) (82, 2.34607189893722534180e-01) (83, 1.97821706533432006836e-01) (84, 5.10742247104644775391e-01) (85, 5.95975697040557861328e-01) (86, 4.23211544752120971680e-01) (87, 5.98497807979583740234e-01) (88, 4.47800368070602416992e-01) (89, 4.59907799959182739258e-01) (90, 4.70098286867141723633e-01) (91, 4.90547180175781250000e-01) (92, 5.11292219161987304688e-01) (93, 3.81705313920974731445e-01) (94, 4.30772930383682250977e-01) (95, -3.57937008142471313477e-01) (96, -2.94190570712089538574e-02) (97, 4.62770879268646240234e-01) (98, 6.64772868156433105469e-01) (99, 9.52665984630584716797e-01) (100, 9.62051630020141601562e-01) (101, 1.01135671138763427734e+00) (102, 1.06881189346313476562e+00) (103, 1.00765502452850341797e+00) (104, 9.35485899448394775391e-01) (105, 1.02605640888214111328e+00) (106, 3.29781800508499145508e-01) (107, 2.34700888395309448242e-01) (108, 1.50055766105651855469e-01) (109, 2.92908817529678344727e-01) (110, 2.79759943485260009766e-01) (111, 1.30340710282325744629e-01) (112, 1.84649825096130371094e-01) (113, 2.71207779645919799805e-01) (114, 2.85002976655960083008e-01) (115, -3.41490432620048522949e-02) (116, -5.56925423443317413330e-02) (117, -1.54459178447723388672e-02) (118, -3.35916206240653991699e-02) (119, -1.18132298812270164490e-02) (120, -1.58847093582153320312e-01) (121, -9.68027114868164062500e-02) (122, -5.45754581689834594727e-02) (123, -1.09302602708339691162e-01) (124, 1.81507226079702377319e-02) (125, -5.06754182279109954834e-02) (126, 1.75934061408042907715e-01) (127, 4.94906723499298095703e-01) (128, -3.03364992141723632812e-01) (0, 7.41261601448059082031e-01) (1, 7.47527062892913818359e-01) (2, 5.76965868473052978516e-01) (3, 6.37247443199157714844e-01) (4, 5.86750745773315429688e-01) (5, 2.46955856680870056152e-01) (6, 6.48820459842681884766e-01) (7, 1.09118230640888214111e-01) (8, 3.67778748273849487305e-01) (9, 3.27715009450912475586e-01) (10, 3.59758108854293823242e-01) (11, 4.32280689477920532227e-01) (12, 6.10270738601684570312e-01) (13, 3.50479990243911743164e-01) (14, 3.30391496419906616211e-01) (15, 3.63174349069595336914e-01) (16, 3.15863460302352905273e-01) (17, 3.03023010492324829102e-01) (18, 3.07597458362579345703e-01) (19, 3.00533145666122436523e-01) (20, 2.70226716995239257812e-01) (21, 2.57460147142410278320e-01) (22, 2.29879483580589294434e-01) (23, 2.22345724701881408691e-01) (24, 2.90925711393356323242e-01) (25, 2.37622126936912536621e-01) (26, 1.36665925383567810059e-01) (27, 1.18066117167472839355e-01) (28, 2.60684579610824584961e-01) (29, 2.33860954642295837402e-01) (30, 2.45859846472740173340e-01) (31, -1.17181308567523956299e-01) (32, -8.61173421144485473633e-02) (33, -3.72385159134864807129e-02) (34, -3.13857942819595336914e-03) (35, -2.68686059862375259399e-02) (36, 5.10764181613922119141e-01) (37, 7.41080045700073242188e-01) (38, 1.48139491677284240723e-01) (39, 5.61254508793354034424e-02) (40, 3.04424073547124862671e-02) (41, 4.44359444081783294678e-02) (42, 1.76334857940673828125e-01) (43, -4.88962754607200622559e-02) (44, 1.72780677676200866699e-01) (45, 8.53549316525459289551e-02) (46, 4.11470681428909301758e-02) (47, 6.25583380460739135742e-02) (48, 1.62292286753654479980e-01) (49, 1.22658833861351013184e-01) (50, 1.37005850672721862793e-01) (51, 6.43314514309167861938e-03) (52, 3.02658751606941223145e-02) (53, 8.99025425314903259277e-02) (54, 1.99743196368217468262e-01) (55, 2.55042344331741333008e-01) (56, 2.61375337839126586914e-01) (57, 2.18611642718315124512e-01) (58, 2.52770215272903442383e-01) (59, 2.01721921563148498535e-01) (60, 1.32134199142456054688e-01) (61, 1.80832922458648681641e-01) (62, 8.10404777526855468750e-01) (63, 8.78905236721038818359e-01) (64, 6.17836475372314453125e-01) (65, 8.16649556159973144531e-01) (66, 4.94706422090530395508e-01) (67, 5.88861107826232910156e-01) (68, 1.98046714067459106445e-01) (69, 3.48964244127273559570e-01) (70, 1.55612796545028686523e-01) (71, 3.17468315362930297852e-01) (72, 3.09977769851684570312e-01) (73, 3.15089136362075805664e-01) (74, 5.19629716873168945312e-01) (75, 6.41312301158905029297e-01) (76, 3.87498289346694946289e-01) (77, 4.01074022054672241211e-01) (78, 2.82923877239227294922e-01) (79, 3.56843948364257812500e-01) (80, 3.30786317586898803711e-01) (81, 2.26983174681663513184e-01) (82, 3.70330601930618286133e-01) (83, 3.30992430448532104492e-01) (84, 2.47706457972526550293e-01) (85, 1.80077299475669860840e-01) (86, 1.96038618683815002441e-01) (87, 1.58204987645149230957e-01) (88, 1.20681963860988616943e-01) (89, 1.77044793963432312012e-01) (90, 2.88162410259246826172e-01) (91, 1.81051954627037048340e-01) (92, 2.82411754131317138672e-01) (93, -2.20560163259506225586e-01) (94, -2.58715182542800903320e-01) (95, -1.67257115244865417480e-01) (96, -1.31295472383499145508e-01) (97, -8.51534456014633178711e-02) (98, 7.40056484937667846680e-02) (99, 1.25187969207763671875e+00) (100, 1.47106015682220458984e+00) (101, 2.86346003413200378418e-02) (102, 5.59174008667469024658e-02) (103, 8.92726704478263854980e-02) (104, 8.48252177238464355469e-02) (105, 6.36388286948204040527e-02) (106, 3.63748800009489059448e-03) (107, 5.01881390810012817383e-02) (108, 4.33415025472640991211e-02) (109, 2.14528348296880722046e-02) (110, 1.80946514010429382324e-01) (111, 1.48042246699333190918e-01) (112, 2.23502125591039657593e-02) (113, 1.25191450119018554688e-01) (114, 5.29488176107406616211e-02) (115, 1.20203629136085510254e-01) (116, 2.28286013007164001465e-01) (117, 2.19951733946800231934e-01) (118, 2.12259575724601745605e-01) (119, 8.28189998865127563477e-02) (120, 7.91989713907241821289e-02) (121, 1.80083662271499633789e-01) (122, 1.43532618880271911621e-01) (123, 2.41272494196891784668e-01) (124, 2.33149603009223937988e-01) (125, 8.10681581497192382812e-01) (126, 9.06903803348541259766e-01) (127, 5.69164752960205078125e-01) (128, -3.04634924978017807007e-02) (0, -7.70071521401405334473e-02) (1, -6.90800026059150695801e-02) (2, -1.20340317487716674805e-01) (3, -8.06984826922416687012e-02) (4, -2.07450464367866516113e-01) (5, -2.14421421289443969727e-01) (6, -2.40666344761848449707e-01) (7, -1.31367489695549011230e-01) (8, -3.26019488275051116943e-02) (9, 3.16375643014907836914e-02) (10, -6.59102201461791992188e-02) (11, -4.09561628475785255432e-03) (12, 9.60829854011535644531e-02) (13, 1.81843429803848266602e-01) (14, -8.35356861352920532227e-02) (15, -1.31825447082519531250e-01) (16, -9.89834591746330261230e-02) (17, 8.96046869456768035889e-03) (18, -9.83493402600288391113e-02) (19, 4.72382493317127227783e-02) (20, -7.12442398071289062500e-03) (21, -1.26876085996627807617e-01) (22, 2.31113210320472717285e-02) (23, 3.45219373703002929688e-01) (24, -6.24981820583343505859e-01) (25, -1.02429604530334472656e+00) (26, -2.52267539501190185547e-01) (27, -1.82070598006248474121e-01) (28, 1.91731050610542297363e-01) (29, 3.34721297025680541992e-01) (30, 2.79899448156356811523e-01) (31, 3.22151601314544677734e-01) (32, 5.54324209690093994141e-01) (33, 5.97274541854858398438e-01) (34, 6.34311854839324951172e-01) (35, 4.46742355823516845703e-01) (36, 5.62070250511169433594e-01) (37, 5.57340025901794433594e-01) (38, 6.84558272361755371094e-01) (39, 1.00128781795501708984e+00) (40, 5.92796981334686279297e-01) (41, 6.16978645324707031250e-01) (42, 6.03028178215026855469e-01) (43, 4.03987228870391845703e-01) (44, 4.56429392099380493164e-01) (45, 6.95851683616638183594e-01) (46, 6.94049060344696044922e-01) (47, 7.11429774761199951172e-01) (48, 5.58257162570953369141e-01) (49, 6.69250607490539550781e-01) (50, 6.60021245479583740234e-01) (51, 7.25615859031677246094e-01) (52, 9.21056389808654785156e-01) (53, 8.90519976615905761719e-01) (54, 8.32301437854766845703e-01) (55, 9.53638553619384765625e-01) (56, 1.97408473491668701172e+00) (57, 2.13696551322937011719e+00) (58, 6.80469095706939697266e-01) (59, 3.66742461919784545898e-01) (60, 3.28172653913497924805e-01) (61, 2.41956576704978942871e-01) (62, 1.27848431468009948730e-01) (63, -1.16756528615951538086e-01) (64, -1.49882644414901733398e-01) (65, -5.04040420055389404297e-02) (66, -1.45238474011421203613e-01) (67, -1.71671658754348754883e-01) (68, -9.10911858081817626953e-02) (69, -2.41470292210578918457e-01) (70, -1.09829619526863098145e-01) (71, 6.23695142567157745361e-02) (72, -5.89171051979064941406e-02) (73, 5.87733425199985504150e-02) (74, 9.91523265838623046875e-02) (75, 1.48040890693664550781e-01) (76, 2.06657752394676208496e-01) (77, -1.46875783801078796387e-01) (78, -5.85762411355972290039e-02) (79, -9.38130766153335571289e-02) (80, -5.48165887594223022461e-02) (81, -1.01205997169017791748e-01) (82, 8.63332897424697875977e-02) (83, -9.35276970267295837402e-02) (84, -5.34945763647556304932e-02) (85, 1.26141533255577087402e-01) (86, 3.66223990917205810547e-01) (87, -7.56692051887512207031e-01) (88, -9.90297079086303710938e-01) (89, -3.97119820117950439453e-01) (90, -3.14844220876693725586e-01) (91, 2.11993739008903503418e-01) (92, 2.69009351730346679688e-01) (93, 2.04507887363433837891e-01) (94, 4.59428966045379638672e-01) (95, 6.07809782028198242188e-01) (96, 5.91819286346435546875e-01) (97, 5.50285339355468750000e-01) (98, 5.13372302055358886719e-01) (99, 6.79945349693298339844e-01) (100, 6.77998363971710205078e-01) (101, 5.72726011276245117188e-01) (102, 1.01413428783416748047e+00) (103, 6.17411851882934570312e-01) (104, 6.29829883575439453125e-01) (105, 5.19122660160064697266e-01) (106, 4.61501717567443847656e-01) (107, 4.91553276777267456055e-01) (108, 7.48291432857513427734e-01) (109, 6.19699954986572265625e-01) (110, 7.50796616077423095703e-01) (111, 5.40200829505920410156e-01) (112, 5.45895636081695556641e-01) (113, 7.27199673652648925781e-01) (114, 6.23928308486938476562e-01) (115, 9.37787711620330810547e-01) (116, 9.77989315986633300781e-01) (117, 5.38217484951019287109e-01) (118, 9.92318749427795410156e-01) (119, 2.09555339813232421875e+00) (120, 2.11180162429809570312e+00) (121, 1.63143682479858398438e+00) (122, 3.08473855257034301758e-01) (123, 2.37296849489212036133e-01) (124, 2.72471040487289428711e-01) (125, 2.50007994472980499268e-02) (126, -1.54146924614906311035e-01) (127, -1.15203678607940673828e-01) (128, 1.82962045073509216309e-03) (0, -9.51775372028350830078e-01) (1, -9.60857331752777099609e-01) (2, -3.13523262739181518555e-01) (3, -1.71868935227394104004e-01) (4, -2.60299146175384521484e-01) (5, 1.41908288002014160156e-01) (6, 2.15208884328603744507e-02) (7, -1.19172535836696624756e-01) (8, -8.57360735535621643066e-02) (9, -2.48549319803714752197e-03) (10, 2.69908934831619262695e-01) (11, 2.00187191367149353027e-01) (12, 2.66244679689407348633e-01) (13, 3.00779670476913452148e-01) (14, 2.34960868954658508301e-01) (15, 2.54679054021835327148e-01) (16, 2.04946964979171752930e-01) (17, 2.05697402358055114746e-01) (18, 2.65617161989212036133e-01) (19, 4.84309911727905273438e-01) (20, 4.22405511140823364258e-01) (21, 5.70413470268249511719e-01) (22, 3.09021204710006713867e-01) (23, 3.90499502420425415039e-01) (24, 3.08227151632308959961e-01) (25, 4.18122917413711547852e-01) (26, 3.29243630170822143555e-01) (27, 4.00163501501083374023e-01) (28, 4.34912174940109252930e-01) (29, 4.19978708028793334961e-01) (30, 1.08630025386810302734e+00) (31, 1.58891379833221435547e+00) (32, 1.75816631317138671875e+00) (33, 1.22302317619323730469e+00) (34, 9.47787165641784667969e-01) (35, 9.51059937477111816406e-01) (36, 8.39512288570404052734e-01) (37, 3.41586112976074218750e-01) (38, 6.08183741569519042969e-01) (39, 5.31274318695068359375e-01) (40, 6.04912817478179931641e-01) (41, 2.55304306745529174805e-01) (42, 3.08672696352005004883e-01) (43, 2.61631339788436889648e-01) (44, 3.89774054288864135742e-01) (45, 3.73118460178375244141e-01) (46, 3.47993999719619750977e-01) (47, -3.40468212962150573730e-02) (48, 5.99438175559043884277e-02) (49, 9.47394669055938720703e-02) (50, -1.15450419485569000244e-01) (51, -1.90222203731536865234e-01) (52, -8.81813000887632369995e-03) (53, -4.75826524198055267334e-02) (54, 1.08946137130260467529e-01) (55, 1.06294974684715270996e-02) (56, 4.77690137922763824463e-02) (57, -6.24746307730674743652e-02) (58, -6.51813521981239318848e-02) (59, 2.77207374572753906250e-01) (60, 3.42232137918472290039e-01) (61, -2.86986976861953735352e-01) (62, -8.81665706634521484375e-01) (63, -2.75573444366455078125e+00) (64, -9.65058267116546630859e-01) (65, -3.95461440086364746094e-01) (66, -2.98857837915420532227e-01) (67, -3.25326800346374511719e-01) (68, 1.11218877136707305908e-01) (69, 2.97595504671335220337e-02) (70, -1.51748107746243476868e-02) (71, -9.97939482331275939941e-02) (72, 6.52953013777732849121e-02) (73, 3.47328931093215942383e-01) (74, 2.09737449884414672852e-01) (75, 3.02969247102737426758e-01) (76, 3.00536334514617919922e-01) (77, 3.35592806339263916016e-01) (78, 5.62036812305450439453e-01) (79, 2.89183616638183593750e-01) (80, 3.59035730361938476562e-01) (81, 3.83694499731063842773e-01) (82, 4.57352727651596069336e-01) (83, 5.10008335113525390625e-01) (84, 4.96380656957626342773e-01) (85, 2.79933959245681762695e-01) (86, 4.33581799268722534180e-01) (87, 2.53340214490890502930e-01) (88, 3.26484352350234985352e-01) (89, 2.74717509746551513672e-01) (90, 3.39243710041046142578e-01) (91, 2.44592681527137756348e-01) (92, 4.48147982358932495117e-01) (93, 1.17059016227722167969e+00) (94, 1.60671269893646240234e+00) (95, 1.60706174373626708984e+00) (96, 1.04952514171600341797e+00) (97, 1.03665244579315185547e+00) (98, 8.86525869369506835938e-01) (99, 7.38350868225097656250e-01) (100, 6.13143742084503173828e-01) (101, 4.95845288038253784180e-01) (102, 5.40262103080749511719e-01) (103, 5.74050307273864746094e-01) (104, 4.20385628938674926758e-01) (105, 3.24983596801757812500e-01) (106, 2.67493307590484619141e-01) (107, 3.53444635868072509766e-01) (108, 2.90061414241790771484e-01) (109, 3.67609471082687377930e-01) (110, -7.92811214923858642578e-02) (111, -6.97745978832244873047e-02) (112, 3.29107269644737243652e-02) (113, -9.45001319050788879395e-02) (114, -3.30291911959648132324e-02) (115, -1.44679084420204162598e-01) (116, 9.41027924418449401855e-02) (117, 1.09221480786800384521e-01) (118, 1.98815017938613891602e-02) (119, 1.06233954429626464844e-01) (120, 8.18962007761001586914e-02) (121, 8.26724469661712646484e-02) (122, 3.87880057096481323242e-01) (123, 2.67284154891967773438e-01) (124, -4.04241710901260375977e-01) (125, -8.00220906734466552734e-01) (126, -1.64175033569335937500e+00) (127, -8.27796101570129394531e-01) (128, -6.77940845489501953125e-01) (0, 2.21856787800788879395e-01) (1, 2.09244713187217712402e-01) (2, 1.87312915921211242676e-01) (3, 2.24349901080131530762e-01) (4, 2.01793074607849121094e-01) (5, 3.72578889131546020508e-01) (6, 2.81645536422729492188e-01) (7, 6.13874137401580810547e-01) (8, 7.39776551723480224609e-01) (9, 6.20692729949951171875e-01) (10, 7.39719748497009277344e-01) (11, 6.71192944049835205078e-01) (12, 7.08510279655456542969e-01) (13, 2.16534495353698730469e-01) (14, 6.72471642494201660156e-01) (15, 4.39958304166793823242e-01) (16, 5.64059972763061523438e-01) (17, 7.72628247737884521484e-01) (18, -2.65143495053052902222e-02) (19, 1.36722639203071594238e-01) (20, 9.15016829967498779297e-02) (21, 1.64299190044403076172e-01) (22, 9.39579606056213378906e-02) (23, 5.09587302803993225098e-02) (24, 1.56162038445472717285e-01) (25, 1.72535087913274765015e-02) (26, 9.65519845485687255859e-02) (27, 9.75268408656120300293e-02) (28, 1.85781836509704589844e-01) (29, 1.13074563443660736084e-01) (30, 1.86300426721572875977e-01) (31, 2.85233911126852035522e-02) (32, 1.54940068721771240234e-01) (33, 7.33987567946314811707e-03) (34, 8.67631509900093078613e-02) (35, 2.89392136037349700928e-02) (36, 3.31466227769851684570e-01) (37, 2.22498640418052673340e-01) (38, -1.34427681565284729004e-01) (39, -2.17789341695606708527e-03) (40, 1.51856159791350364685e-02) (41, -3.17816972732543945312e-01) (42, -1.20606161653995513916e-01) (43, -2.25136578083038330078e-01) (44, -1.01692296564579010010e-01) (45, -1.12686924636363983154e-01) (46, 1.78551003336906433105e-01) (47, -7.44383782148361206055e-02) (48, -3.99534940719604492188e-01) (49, -3.05080801248550415039e-01) (50, 2.54499077796936035156e-01) (51, 3.17006140947341918945e-01) (52, 2.96790719032287597656e-01) (53, 1.80148690938949584961e-01) (54, 2.00299739837646484375e-01) (55, 2.85645842552185058594e-01) (56, 2.29864954948425292969e-01) (57, 3.29151332378387451172e-01) (58, 1.95467188954353332520e-01) (59, 2.53170937299728393555e-01) (60, 2.79434710741043090820e-01) (61, 2.18976378440856933594e-01) (62, 2.93142914772033691406e-01) (63, 2.23431989550590515137e-01) (64, 2.14842319488525390625e-01) (65, 3.67857307195663452148e-01) (66, 2.55030095577239990234e-01) (67, 2.74639576673507690430e-01) (68, 3.76654535531997680664e-01) (69, 5.25983452796936035156e-01) (70, 4.52530294656753540039e-01) (71, 8.47503483295440673828e-01) (72, 3.51570338010787963867e-01) (73, 8.31153452396392822266e-01) (74, 6.45965516567230224609e-01) (75, 5.63548684120178222656e-01) (76, 2.89665907621383666992e-01) (77, 8.39663267135620117188e-01) (78, 5.15687167644500732422e-01) (79, 7.53356158733367919922e-01) (80, 8.26070427894592285156e-01) (81, 2.04481446417048573494e-04) (82, 7.64662176370620727539e-02) (83, 1.34483631700277328491e-02) (84, 1.66786909103393554688e-02) (85, 1.12008236348628997803e-01) (86, 1.34336486458778381348e-01) (87, 8.14131498336791992188e-02) (88, 7.64225572347640991211e-02) (89, 1.65066719055175781250e-01) (90, 1.64091825485229492188e-01) (91, 1.86143815517425537109e-01) (92, 1.43295442685484886169e-02) (93, 6.75162374973297119141e-02) (94, 3.04605700075626373291e-02) (95, 6.17925897240638732910e-02) (96, 6.91002532839775085449e-02) (97, 1.19953490793704986572e-01) (98, 8.63819941878318786621e-03) (99, 3.97302180528640747070e-01) (100, 9.89569574594497680664e-02) (101, -1.14380121231079101562e-01) (102, 1.16452902555465698242e-01) (103, 7.89814665913581848145e-02) (104, -1.75446406006813049316e-01) (105, -2.54973173141479492188e-01) (106, -1.25997453927993774414e-01) (107, -8.07933658361434936523e-02) (108, -2.67774075269699096680e-01) (109, 1.53418853878974914551e-01) (110, -1.12817667424678802490e-01) (111, -3.07074099779129028320e-01) (112, -3.03494125604629516602e-01) (113, 3.55863600969314575195e-01) (114, 3.37307989597320556641e-01) (115, 3.50756973028182983398e-01) (116, 2.99563497304916381836e-01) (117, 3.03979307413101196289e-01) (118, 2.64863193035125732422e-01) (119, 2.08285495638847351074e-01) (120, 3.01345497369766235352e-01) (121, 2.67009794712066650391e-01) (122, 2.32116565108299255371e-01) (123, 3.52883845567703247070e-01) (124, 3.45974594354629516602e-01) (125, 2.74025827646255493164e-01) (126, 2.03733667731285095215e-01) (127, 2.03026160597801208496e-01) (128, -2.63816267251968383789e-01) (0, 2.33786612749099731445e-01) (1, 2.01778724789619445801e-01) (2, 2.01406896114349365234e-01) (3, 2.55335181951522827148e-01) (4, 4.44269001483917236328e-01) (5, 3.96219730377197265625e-01) (6, 3.15877556800842285156e-01) (7, 1.91674306988716125488e-01) (8, 2.69274830818176269531e-01) (9, 3.53500008583068847656e-01) (10, 6.08473159372806549072e-02) (11, 2.29898259043693542480e-01) (12, -3.40034365653991699219e-01) (13, 1.96412920951843261719e-01) (14, 1.47926300764083862305e-01) (15, 6.54610693454742431641e-01) (16, 4.71641689538955688477e-01) (17, 4.69335347414016723633e-01) (18, 5.73392331600189208984e-01) (19, 4.25515681505203247070e-01) (20, 5.29728353023529052734e-01) (21, 5.16680181026458740234e-01) (22, 6.88270986080169677734e-01) (23, 5.82866728305816650391e-01) (24, 5.55368661880493164062e-01) (25, 6.48205041885375976562e-01) (26, 5.35891532897949218750e-01) (27, 6.39145314693450927734e-01) (28, 5.60783371329307556152e-02) (29, -5.63678964972496032715e-02) (30, 9.92303267121315002441e-02) (31, -3.32550853490829467773e-02) (32, 2.22907941788434982300e-02) (33, 1.06142558157444000244e-01) (34, 7.82128944993019104004e-02) (35, -4.12348918616771697998e-02) (36, -6.57041184604167938232e-03) (37, 3.76466400921344757080e-02) (38, -2.86408215761184692383e-02) (39, 1.37089103460311889648e-01) (40, 6.94517418742179870605e-02) (41, 7.91571214795112609863e-02) (42, 3.48332822322845458984e-01) (43, 3.13054203987121582031e-01) (44, 3.33985574543476104736e-02) (45, 7.95419514179229736328e-01) (46, -1.47546023130416870117e-01) (47, -6.41420111060142517090e-02) (48, -1.18465282022953033447e-01) (49, 3.18203233182430267334e-02) (50, -1.10217474400997161865e-01) (51, -1.67714789509773254395e-01) (52, -2.72172540426254272461e-01) (53, -2.82141685485839843750e-01) (54, -1.77729651331901550293e-01) (55, -2.11789712309837341309e-01) (56, -1.22055411338806152344e-01) (57, -1.29956930875778198242e-01) (58, -2.62819468975067138672e-01) (59, 4.26993221044540405273e-01) (60, 3.15292030572891235352e-01) (61, 4.64588016271591186523e-01) (62, 3.73435199260711669922e-01) (63, 3.08633238077163696289e-01) (64, 3.40642899274826049805e-01) (65, 2.52085894346237182617e-01) (66, 3.62340748310089111328e-01) (67, 2.98437714576721191406e-01) (68, 4.58141267299652099609e-01) (69, 3.02108585834503173828e-01) (70, 1.98188915848731994629e-01) (71, 2.88037419319152832031e-01) (72, 3.10936182737350463867e-01) (73, 2.31617137789726257324e-01) (74, 1.15837678313255310059e-01) (75, 3.73656511306762695312e-01) (76, 1.44933789968490600586e-01) (77, 6.57107293605804443359e-01) (78, 7.49445676803588867188e-01) (79, 4.65376049280166625977e-01) (80, 4.48197573423385620117e-01) (81, 5.50064980983734130859e-01) (82, 5.11621117591857910156e-01) (83, 6.23097121715545654297e-01) (84, 6.67328536510467529297e-01) (85, 5.58253228664398193359e-01) (86, 6.85700237751007080078e-01) (87, 6.38979077339172363281e-01) (88, 5.22002279758453369141e-01) (89, 5.16586899757385253906e-01) (90, -8.82096868008375167847e-03) (91, -5.80906458199024200439e-02) (92, -1.14210031926631927490e-01) (93, 2.95493286103010177612e-02) (94, 1.27422809600830078125e-01) (95, 1.03313073515892028809e-01) (96, 9.02569144964218139648e-02) (97, 1.45896285772323608398e-01) (98, 9.39561575651168823242e-02) (99, 3.94654832780361175537e-02) (100, 9.15611237287521362305e-02) (101, -3.34704853594303131104e-02) (102, 1.88757525756955146790e-03) (103, 8.08023810386657714844e-02) (104, -8.36743135005235671997e-03) (105, 2.99070656299591064453e-01) (106, 6.53739392757415771484e-01) (107, 2.78642058372497558594e-01) (108, 6.48924291133880615234e-01) (109, -1.26242309808731079102e-01) (110, -1.44220396876335144043e-01) (111, -2.90268287062644958496e-02) (112, 2.99386419355869293213e-02) (113, -1.10804801806807518005e-02) (114, -1.82853698730468750000e-01) (115, -1.29266723990440368652e-01) (116, -2.71801263093948364258e-01) (117, -2.90035247802734375000e-01) (118, -1.78406551480293273926e-01) (119, -2.37917646765708923340e-01) (120, -2.61567234992980957031e-01) (121, -2.72602379322052001953e-01) (122, 3.96961957216262817383e-01) (123, 3.25839847326278686523e-01) (124, 3.03044050931930541992e-01) (125, 3.04081767797470092773e-01) (126, 2.00203582644462585449e-01) (127, 2.45293498039245605469e-01) (128, 1.84895500540733337402e-01) (0, -1.24299995601177215576e-01) (1, -3.95421944558620452881e-02) (2, -3.34883064031600952148e-01) (3, -3.74693363904953002930e-01) (4, -2.70593076944351196289e-01) (5, -1.32633745670318603516e-01) (6, -1.68772116303443908691e-01) (7, -2.20173839479684829712e-02) (8, -1.10097676515579223633e-01) (9, 1.41020238399505615234e-01) (10, 2.02430665493011474609e-01) (11, 1.89280807971954345703e-01) (12, 2.14588910341262817383e-01) (13, 9.81135964393615722656e-01) (14, 9.98404145240783691406e-01) (15, 3.99194151163101196289e-01) (16, 4.05679792165756225586e-01) (17, 3.76541048288345336914e-01) (18, 4.25385206937789916992e-01) (19, 4.13636893033981323242e-01) (20, 4.94070827960968017578e-01) (21, 4.83874261379241943359e-01) (22, 4.48476582765579223633e-01) (23, 3.13552200794219970703e-01) (24, 4.07508671283721923828e-01) (25, 4.92282092571258544922e-01) (26, 4.21265244483947753906e-01) (27, 8.95789325237274169922e-01) (28, 1.05710005760192871094e+00) (29, 6.53531610965728759766e-01) (30, 5.34835815429687500000e-01) (31, 6.79388105869293212891e-01) (32, 5.41226208209991455078e-01) (33, 6.78585529327392578125e-01) (34, 5.58416426181793212891e-01) (35, 6.26726984977722167969e-01) (36, 5.30806064605712890625e-01) (37, 3.16330015659332275391e-01) (38, 4.45645362138748168945e-01) (39, 4.65636491775512695312e-01) (40, 3.32523614168167114258e-01) (41, 2.56290942430496215820e-01) (42, 3.42045009136199951172e-01) (43, 3.34412992000579833984e-01) (44, 2.82011866569519042969e-01) (45, -5.32099716365337371826e-02) (46, 1.62769034504890441895e-01) (47, 1.18696957826614379883e-01) (48, 5.10584674775600433350e-02) (49, 8.49931240081787109375e-02) (50, 2.91729457676410675049e-02) (51, 4.19682599604129791260e-02) (52, 6.53032362461090087891e-02) (53, 1.74085408449172973633e-01) (54, 5.62793947756290435791e-02) (55, 1.73534765839576721191e-01) (56, 1.67150512337684631348e-01) (57, 1.77624285221099853516e-01) (58, 1.79065093398094177246e-01) (59, -4.35279160737991333008e-01) (60, -4.27248209714889526367e-01) (61, -2.98886001110076904297e-01) (62, -1.75358399748802185059e-01) (63, -2.17770785093307495117e-01) (64, -4.70018237829208374023e-02) (65, -2.29476943612098693848e-01) (66, -2.90125697851181030273e-01) (67, -2.31677770614624023438e-01) (68, -1.35854899883270263672e-01) (69, -1.38725236058235168457e-01) (70, -1.42889916896820068359e-01) (71, -8.00072997808456420898e-02) (72, 1.98323264718055725098e-01) (73, 1.37171611189842224121e-01) (74, 2.49351978302001953125e-01) (75, 2.71286934614181518555e-01) (76, 9.86016392707824707031e-01) (77, 1.02548277378082275391e+00) (78, 4.12288427352905273438e-01) (79, 4.44998413324356079102e-01) (80, 3.17997753620147705078e-01) (81, 4.39570277929306030273e-01) (82, 4.85075652599334716797e-01) (83, 3.81409883499145507812e-01) (84, 4.12234932184219360352e-01) (85, 3.39934378862380981445e-01) (86, 3.48248094320297241211e-01) (87, 3.73677730560302734375e-01) (88, 3.12193870544433593750e-01) (89, 3.48846375942230224609e-01) (90, 9.09895837306976318359e-01) (91, 1.01650714874267578125e+00) (92, 5.76350569725036621094e-01) (93, 6.50426447391510009766e-01) (94, 5.38690328598022460938e-01) (95, 4.58636850118637084961e-01) (96, 6.98146820068359375000e-01) (97, 7.09746479988098144531e-01) (98, 5.82369029521942138672e-01) (99, 5.47146141529083251953e-01) (100, 4.97707039117813110352e-01) (101, 4.80414688587188720703e-01) (102, 3.12067002058029174805e-01) (103, 2.66706943511962890625e-01) (104, 2.25801125168800354004e-01) (105, 4.48547065258026123047e-01) (106, 4.29791510105133056641e-01) (107, 4.56402599811553955078e-01) (108, -1.19627960026264190674e-01) (109, 7.12416172027587890625e-02) (110, 1.32406443357467651367e-01) (111, 1.26097083091735839844e-01) (112, 7.65094812959432601929e-03) (113, 1.14320993423461914062e-01) (114, 4.34593018144369125366e-03) (115, 1.16321623325347900391e-01) (116, 1.50691241025924682617e-01) (117, 5.33529259264469146729e-02) (118, 1.90722241997718811035e-01) (119, 1.63668170571327209473e-01) (120, 8.90347138047218322754e-02) (121, -5.89367449283599853516e-01) (122, -4.78622198104858398438e-01) (123, -3.85813832283020019531e-01) (124, -4.16989833116531372070e-01) (125, -1.51030316948890686035e-01) (126, -1.70165330171585083008e-01) (127, 4.67068934813141822815e-03) (128, 2.07142859697341918945e-01) (0, 1.09500996768474578857e-01) (1, -7.08183273673057556152e-02) (2, 3.01052689552307128906e-01) (3, 3.99177134037017822266e-01) (4, 4.86358940601348876953e-01) (5, -1.27483785152435302734e-01) (6, -1.69139370322227478027e-01) (7, -2.02932849526405334473e-01) (8, -1.95780918002128601074e-01) (9, -1.80200800299644470215e-01) (10, -9.33029875159263610840e-02) (11, -1.32690012454986572266e-01) (12, -2.54697561264038085938e-01) (13, -1.74108505249023437500e-01) (14, -1.26459732651710510254e-01) (15, 3.53516966104507446289e-01) (16, 3.24130564928054809570e-01) (17, 2.83755034208297729492e-01) (18, 3.02787482738494873047e-01) (19, 3.76062840223312377930e-01) (20, 2.72103905677795410156e-01) (21, 2.67296731472015380859e-01) (22, 2.66178756952285766602e-01) (23, 4.04710799455642700195e-01) (24, 4.92861300706863403320e-01) (25, 3.51873368024826049805e-01) (26, 4.11995470523834228516e-01) (27, 4.08159822225570678711e-01) (28, 3.62994253635406494141e-01) (29, 3.10313135385513305664e-01) (30, 2.61202663183212280273e-01) (31, 1.32177710533142089844e-01) (32, 3.21890443563461303711e-01) (33, 4.26960110664367675781e-01) (34, 1.65844187140464782715e-02) (35, 1.13675341010093688965e-01) (36, 1.93463131785392761230e-01) (37, 5.32214939594268798828e-01) (38, 4.24645781517028808594e-01) (39, 5.61610400676727294922e-01) (40, 4.35659259557723999023e-01) (41, 5.90047299861907958984e-01) (42, 4.99628335237503051758e-01) (43, 4.51380342245101928711e-01) (44, 4.85108047723770141602e-01) (45, 4.36218529939651489258e-01) (46, 5.72244226932525634766e-01) (47, 5.73623999953269958496e-02) (48, -3.19026336073875427246e-02) (49, -7.64552950859069824219e-02) (50, 1.16136565338820219040e-03) (51, 7.93739501386880874634e-03) (52, -4.46368902921676635742e-02) (53, 2.88673862814903259277e-02) (54, -5.42108230292797088623e-02) (55, -1.86345651745796203613e-02) (56, -8.12229290604591369629e-02) (57, -1.81088760495185852051e-01) (58, -1.80065054446458816528e-02) (59, -1.43313899636268615723e-01) (60, -1.05343550443649291992e-01) (61, 1.13980397582054138184e-01) (62, 1.85809090733528137207e-01) (63, 2.14696861803531646729e-02) (64, 3.85629050433635711670e-02) (65, 2.87371486425399780273e-01) (66, 5.07127344608306884766e-01) (67, 2.09877997636795043945e-01) (68, -1.65088415145874023438e-01) (69, -1.59380480647087097168e-01) (70, -6.06783591210842132568e-02) (71, -1.78685888648033142090e-01) (72, -1.91057875752449035645e-01) (73, -1.92187160253524780273e-01) (74, -1.60796403884887695312e-01) (75, -1.38192683458328247070e-01) (76, -1.84918254613876342773e-01) (77, -2.14520543813705444336e-01) (78, 3.07738274335861206055e-01) (79, 3.71747642755508422852e-01) (80, 2.97592669725418090820e-01) (81, 4.02154326438903808594e-01) (82, 2.72939741611480712891e-01) (83, 3.46210509538650512695e-01) (84, 3.30485254526138305664e-01) (85, 2.39516511559486389160e-01) (86, 4.55425739288330078125e-01) (87, 3.73897641897201538086e-01) (88, 3.79395395517349243164e-01) (89, 3.80389451980590820312e-01) (90, 3.13147425651550292969e-01) (91, 3.92509132623672485352e-01) (92, 3.10223042964935302734e-01) (93, 3.03964287042617797852e-01) (94, 9.79183539748191833496e-02) (95, 4.30003434419631958008e-01) (96, 2.69293129444122314453e-01) (97, 8.95385965704917907715e-02) (98, 6.33122958242893218994e-03) (99, 1.92935705184936523438e-01) (100, 4.37218129634857177734e-01) (101, 4.59556251764297485352e-01) (102, 5.78238308429718017578e-01) (103, 5.03616690635681152344e-01) (104, 5.29366672039031982422e-01) (105, 4.87859129905700683594e-01) (106, 4.35841202735900878906e-01) (107, 6.13617837429046630859e-01) (108, 5.36388695240020751953e-01) (109, 5.96503674983978271484e-01) (110, 3.34891304373741149902e-02) (111, 8.21049585938453674316e-02) (112, -3.84063348174095153809e-02) (113, 7.41649940609931945801e-02) (114, -3.94840072840452194214e-03) (115, 5.66005744040012359619e-02) (116, 7.52085149288177490234e-02) (117, -2.15381518006324768066e-01) (118, -3.63607592880725860596e-02) (119, -2.05756455659866333008e-01) (120, -1.73865631222724914551e-01) (121, -1.30745008587837219238e-01) (122, -3.99359352886676788330e-02) (123, -9.49154123663902282715e-02) (124, 4.40034680068492889404e-02) (125, 2.54927664995193481445e-01) (126, -1.56911537051200866699e-02) (127, -3.58382612466812133789e-02) (128, 5.28415620326995849609e-01) (0, 1.19530022144317626953e-01) (1, 5.77406547963619232178e-02) (2, 1.07090137898921966553e-01) (3, 2.28116214275360107422e-01) (4, 2.60989606380462646484e-01) (5, 2.44103118777275085449e-01) (6, 1.39523893594741821289e-01) (7, 1.85287043452262878418e-01) (8, -6.88063353300094604492e-02) (9, -1.99819996953010559082e-01) (10, -9.67841148376464843750e-02) (11, -1.87551766633987426758e-01) (12, -9.20545533299446105957e-02) (13, -1.33940607309341430664e-01) (14, 1.11909516155719757080e-01) (15, 1.36812791228294372559e-01) (16, 1.30298240110278129578e-02) (17, -3.39877754449844360352e-02) (18, 5.05279541015625000000e-01) (19, 5.71897387504577636719e-01) (20, 1.04738891124725341797e+00) (21, 4.84713792800903320312e-01) (22, 4.21382009983062744141e-01) (23, 1.17655277252197265625e-01) (24, 8.50344002246856689453e-02) (25, 1.85172602534294128418e-01) (26, 2.32383176684379577637e-01) (27, 2.21840947866439819336e-01) (28, 2.38590389490127563477e-01) (29, 1.61821857094764709473e-01) (30, 7.41234421730041503906e-02) (31, 2.83891499042510986328e-01) (32, 2.39311873912811279297e-01) (33, 2.06886813044548034668e-01) (34, 1.46705389022827148438e-01) (35, 1.51120215654373168945e-01) (36, 9.82973575592041015625e-02) (37, 1.31607756018638610840e-01) (38, 1.74987524747848510742e-01) (39, -6.20872760191559791565e-03) (40, 6.16569280624389648438e-01) (41, 5.76366662979125976562e-01) (42, 5.68432986736297607422e-01) (43, 6.06566190719604492188e-01) (44, 5.16067564487457275391e-01) (45, 6.95398390293121337891e-01) (46, 3.95631045103073120117e-01) (47, 3.81831735372543334961e-01) (48, 5.14447629451751708984e-01) (49, 6.05605363845825195312e-01) (50, 1.35217696428298950195e-01) (51, -8.01830887794494628906e-02) (52, -3.31505298614501953125e-01) (53, 1.41114927828311920166e-02) (54, 7.11885988712310791016e-02) (55, 1.89248040318489074707e-01) (56, 1.20204120874404907227e-01) (57, 2.24491938948631286621e-01) (58, 1.50090783834457397461e-01) (59, 1.12595766782760620117e-01) (60, 1.40115022659301757812e-01) (61, 1.78015634417533874512e-01) (62, 1.16956360638141632080e-01) (63, 2.05414474010467529297e-01) (64, 2.46830612421035766602e-01) (65, 1.68409481644630432129e-01) (66, 1.48458972573280334473e-01) (67, 1.16951420903205871582e-01) (68, 1.14366099238395690918e-01) (69, 9.11900103092193603516e-02) (70, 2.11890995502471923828e-01) (71, -7.13046640157699584961e-02) (72, -1.43279030919075012207e-01) (73, -8.72317552566528320312e-02) (74, -1.86922371387481689453e-01) (75, -1.45469039678573608398e-01) (76, -1.06136627495288848877e-01) (77, 1.19540445506572723389e-01) (78, 1.45119413733482360840e-01) (79, 1.21756298467516899109e-02) (80, -2.23329272121191024780e-02) (81, 5.87108373641967773438e-01) (82, 9.16831493377685546875e-01) (83, 1.14873361587524414062e+00) (84, 4.59089040756225585938e-01) (85, 4.39411669969558715820e-01) (86, 1.00851476192474365234e-01) (87, 1.81408330798149108887e-01) (88, 6.80285990238189697266e-02) (89, 1.57672032713890075684e-01) (90, 1.92679747939109802246e-01) (91, 1.00073799490928649902e-01) (92, 2.27617725729942321777e-01) (93, 1.83852910995483398438e-01) (94, 2.03915342688560485840e-01) (95, 2.61015653610229492188e-01) (96, 2.81646251678466796875e-01) (97, 1.87630906701087951660e-01) (98, 2.29985266923904418945e-01) (99, 4.33080308139324188232e-02) (100, 1.27569153904914855957e-01) (101, 6.70745223760604858398e-02) (102, 1.35163798928260803223e-01) (103, 6.61486089229583740234e-01) (104, 6.84158861637115478516e-01) (105, 5.28620779514312744141e-01) (106, 6.05856835842132568359e-01) (107, 6.51664018630981445312e-01) (108, 6.63217186927795410156e-01) (109, 4.04239982366561889648e-01) (110, 5.16574144363403320312e-01) (111, 4.92881864309310913086e-01) (112, 4.95031088590621948242e-01) (113, 1.70093744993209838867e-01) (114, -2.28403806686401367188e-01) (115, 4.44469079375267028809e-02) (116, 6.70171678066253662109e-02) (117, 1.16082236170768737793e-01) (118, 1.49423152208328247070e-01) (119, 2.55965799093246459961e-01) (120, 2.12756171822547912598e-01) (121, 2.81104385852813720703e-01) (122, 1.09841182827949523926e-01) (123, 1.94175198674201965332e-01) (124, 1.22470051050186157227e-01) (125, 3.42253185808658599854e-02) (126, 7.98645541071891784668e-02) (127, 2.66208142042160034180e-01) (128, 2.30670273303985595703e-01) (0, -5.97406268119812011719e-01) (1, 3.90448011457920074463e-02) (2, 7.07531720399856567383e-02) (3, 1.56570523977279663086e-01) (4, 2.59959727525711059570e-01) (5, 2.63827145099639892578e-01) (6, 1.53809651732444763184e-01) (7, 1.05812408030033111572e-01) (8, 4.12238866090774536133e-01) (9, 3.49699229001998901367e-01) (10, 7.21760332584381103516e-01) (11, 6.67788445949554443359e-01) (12, 7.17745959758758544922e-01) (13, 5.61005949974060058594e-01) (14, 7.10217833518981933594e-01) (15, 5.98852992057800292969e-01) (16, 5.45215487480163574219e-01) (17, 5.08578240871429443359e-01) (18, 4.24730509519577026367e-01) (19, 1.41937837004661560059e-01) (20, 2.77274727821350097656e-01) (21, 2.53171324729919433594e-01) (22, 2.17529371380805969238e-01) (23, 4.92159754037857055664e-01) (24, 4.72540527582168579102e-01) (25, 3.15995126962661743164e-01) (26, 6.43674790859222412109e-01) (27, 3.36144715547561645508e-01) (28, 1.90485432744026184082e-01) (29, 7.55437254905700683594e-01) (30, 1.57258622348308563232e-02) (31, 1.18705976009368896484e+00) (32, 1.21287298202514648438e+00) (33, 6.96584343910217285156e-01) (34, 7.67928957939147949219e-01) (35, 4.02538388967514038086e-01) (36, 3.29990178346633911133e-01) (37, 3.06819528341293334961e-01) (38, 4.22806888818740844727e-01) (39, 1.38284996151924133301e-01) (40, 5.08823432028293609619e-02) (41, 1.34930402040481567383e-01) (42, -1.57963171601295471191e-01) (43, -1.95802032947540283203e-01) (44, -6.84936121106147766113e-02) (45, -1.84175550937652587891e-01) (46, -1.35429546236991882324e-01) (47, -6.17587007582187652588e-02) (48, -7.80184566974639892578e-02) (49, 5.96799002960324287415e-03) (50, 3.40055972337722778320e-01) (51, 4.61707144975662231445e-01) (52, 4.65712279081344604492e-01) (53, 5.31370818614959716797e-01) (54, 2.21139863133430480957e-01) (55, 2.18157321214675903320e-01) (56, 6.20410799980163574219e-01) (57, -2.08311274647712707520e-01) (58, 1.28762915730476379395e-01) (59, 2.13816970586776733398e-01) (60, -7.40271508693695068359e-02) (61, 1.73271179199218750000e-01) (62, -3.64057660102844238281e-01) (63, -4.30767774581909179688e-01) (64, -1.36229544878005981445e-01) (65, 4.27000150084495544434e-02) (66, 2.13929399847984313965e-01) (67, 2.38736659288406372070e-01) (68, 2.83299326896667480469e-01) (69, 1.66658237576484680176e-01) (70, 1.80543854832649230957e-01) (71, 3.84704023599624633789e-01) (72, 3.52110952138900756836e-01) (73, 7.05103337764739990234e-01) (74, 6.26855254173278808594e-01) (75, 7.21733570098876953125e-01) (76, 5.55043816566467285156e-01) (77, 7.27822601795196533203e-01) (78, 6.96208477020263671875e-01) (79, 7.19034194946289062500e-01) (80, 5.05809307098388671875e-01) (81, 5.70221245288848876953e-01) (82, 2.15194821357727050781e-01) (83, 1.04983344674110412598e-01) (84, 1.89828723669052124023e-01) (85, 2.50336438417434692383e-01) (86, 4.04007583856582641602e-01) (87, 3.31167131662368774414e-01) (88, 4.50537413358688354492e-01) (89, 6.48659765720367431641e-01) (90, 5.22175550460815429688e-01) (91, 1.66681662201881408691e-01) (92, 7.63179183006286621094e-01) (93, 1.03761017322540283203e+00) (94, 1.09461677074432373047e+00) (95, 6.23274922370910644531e-01) (96, 6.78327679634094238281e-01) (97, 4.38721001148223876953e-01) (98, 2.76939600706100463867e-01) (99, 3.97331804037094116211e-01) (100, 3.19366186857223510742e-01) (101, 3.71939539909362792969e-01) (102, 1.78091838955879211426e-01) (103, 6.58407583832740783691e-02) (104, -1.60593971610069274902e-01) (105, -1.59089431166648864746e-01) (106, -1.76855981349945068359e-01) (107, -1.41980305314064025879e-01) (108, -1.68948143720626831055e-01) (109, -2.19128057360649108887e-01) (110, -1.64627805352210998535e-01) (111, -6.55598863959312438965e-02) (112, 6.77601993083953857422e-02) (113, 5.10443985462188720703e-01) (114, 5.11627018451690673828e-01) (115, 4.68084901571273803711e-01) (116, 5.36067187786102294922e-01) (117, 2.05589458346366882324e-01) (118, 1.41523092985153198242e-01) (119, 4.59806859493255615234e-01) (120, -8.77806693315505981445e-02) (121, 3.81594114005565643311e-02) (122, 1.87583342194557189941e-01) (123, -3.56369651854038238525e-03) (124, 1.56389966607093811035e-01) (125, -5.66776871681213378906e-01) (126, -5.38207292556762695312e-01) (127, -1.07441775500774383545e-01) (128, -2.36259013414382934570e-01) (0, -7.58540630340576171875e-02) (1, -1.21879212558269500732e-01) (2, 5.24000287055969238281e-01) (3, 5.94608008861541748047e-01) (4, 4.28334861993789672852e-01) (5, 5.95094025135040283203e-01) (6, 4.67266857624053955078e-01) (7, 5.02499103546142578125e-01) (8, 4.16465431451797485352e-01) (9, 4.70775842666625976562e-01) (10, 4.79039967060089111328e-01) (11, 3.79811853170394897461e-01) (12, 2.28145197033882141113e-01) (13, 3.23463201522827148438e-01) (14, 2.80416548252105712891e-01) (15, 5.57430446147918701172e-01) (16, 4.21579897403717041016e-01) (17, 3.09885770082473754883e-01) (18, 3.05720359086990356445e-01) (19, 3.48242610692977905273e-01) (20, 5.32672882080078125000e-01) (21, 5.44582545757293701172e-01) (22, 4.16112959384918212891e-01) (23, 5.45101940631866455078e-01) (24, 3.43141853809356689453e-01) (25, 3.80589097738265991211e-01) (26, 4.89229083061218261719e-01) (27, 4.69955712556838989258e-01) (28, 4.80986952781677246094e-01) (29, 4.03512090444564819336e-01) (30, 5.43375730514526367188e-01) (31, 3.72441679239273071289e-01) (32, 4.48941618204116821289e-01) (33, -1.36515617370605468750e-01) (34, -2.36842170357704162598e-01) (35, -1.26614764332771301270e-01) (36, -1.39548689126968383789e-01) (37, -1.67702049016952514648e-01) (38, -2.22242727875709533691e-01) (39, -8.59800577163696289062e-02) (40, -1.87643393874168395996e-01) (41, 2.51776389777660369873e-02) (42, -1.38181284070014953613e-01) (43, -9.55776199698448181152e-02) (44, 1.00783854722976684570e-01) (45, 4.58266548812389373779e-02) (46, 2.92617036029696464539e-03) (47, -6.56445398926734924316e-02) (48, 9.97858405113220214844e-01) (49, 1.89195439219474792480e-01) (50, 8.24939608573913574219e-02) (51, 2.07263603806495666504e-03) (52, -1.09093105420470237732e-02) (53, -1.67935818433761596680e-01) (54, -9.77285057306289672852e-02) (55, -1.40657395124435424805e-01) (56, -5.93924410641193389893e-02) (57, -1.00242525339126586914e-01) (58, -5.05766347050666809082e-02) (59, -1.49647042155265808105e-01) (60, -6.79721236228942871094e-02) (61, -6.52962177991867065430e-02) (62, -1.35300964117050170898e-01) (63, 2.28738542646169662476e-02) (64, 4.11292552947998046875e-01) (65, 4.40961241722106933594e-01) (66, 5.09363949298858642578e-01) (67, 5.17953932285308837891e-01) (68, 5.18999993801116943359e-01) (69, 5.32861590385437011719e-01) (70, 4.77713704109191894531e-01) (71, 5.23167848587036132812e-01) (72, 4.37245965003967285156e-01) (73, 4.18902754783630371094e-01) (74, 3.39988499879837036133e-01) (75, 2.57986992597579956055e-01) (76, 3.68817567825317382812e-01) (77, 3.46439719200134277344e-01) (78, 6.63300335407257080078e-01) (79, -1.14076860249042510986e-01) (80, 2.86337435245513916016e-01) (81, 2.91261345148086547852e-01) (82, 3.45825999975204467773e-01) (83, 5.18838584423065185547e-01) (84, 5.80859720706939697266e-01) (85, 4.93196099996566772461e-01) (86, 5.34902215003967285156e-01) (87, 4.20409500598907470703e-01) (88, 4.92346227169036865234e-01) (89, 4.16561961174011230469e-01) (90, 4.63531345129013061523e-01) (91, 4.11380410194396972656e-01) (92, 5.18574178218841552734e-01) (93, 4.95539009571075439453e-01) (94, 4.01563018560409545898e-01) (95, 5.30775785446166992188e-01) (96, -6.73909932374954223633e-02) (97, -9.29647982120513916016e-02) (98, -1.55161857604980468750e-01) (99, -1.46518141031265258789e-01) (100, -1.58230364322662353516e-01) (101, -7.55749344825744628906e-02) (102, -1.87585934996604919434e-01) (103, -2.11701586842536926270e-01) (104, -8.82917717099189758301e-02) (105, -7.90401771664619445801e-02) (106, -8.97937864065170288086e-02) (107, 5.03411516547203063965e-02) (108, 1.26567766070365905762e-01) (109, 1.16285420954227447510e-01) (110, 5.45000314712524414062e-01) (111, 4.75807964801788330078e-01) (112, 2.78652429580688476562e-01) (113, 1.02101624011993408203e-01) (114, -1.34548515081405639648e-01) (115, -8.51749852299690246582e-02) (116, -7.12451189756393432617e-02) (117, -2.05770775675773620605e-01) (118, -1.38910129666328430176e-01) (119, -5.09444400668144226074e-02) (120, -8.09520110487937927246e-02) (121, -5.39990141987800598145e-02) (122, -1.08057418838143348694e-02) (123, -1.33619189262390136719e-01) (124, -1.16555459797382354736e-01) (125, 3.26616801321506500244e-02) (126, -1.60938695073127746582e-01) (127, 4.29157972335815429688e-01) (128, -3.99705916643142700195e-01) (0, -4.48835283517837524414e-01) (1, -4.17379111051559448242e-01) (2, -5.20911216735839843750e-01) (3, -3.41122508049011230469e-01) (4, -2.21485331654548645020e-01) (5, 7.93956741690635681152e-02) (6, 1.98966577649116516113e-01) (7, 8.67285802960395812988e-02) (8, 2.68936932086944580078e-01) (9, 4.49778558686375617981e-03) (10, -1.67779892683029174805e-01) (11, -1.21326275169849395752e-01) (12, -1.55749365687370300293e-01) (13, 1.06351763010025024414e-01) (14, -8.04985538125038146973e-02) (15, 8.24013538658618927002e-03) (16, 1.46293630823493003845e-02) (17, 9.98095422983169555664e-02) (18, 1.73550900071859359741e-02) (19, 2.68564112484455108643e-02) (20, 1.05935558676719665527e-01) (21, 1.17072731256484985352e-01) (22, 9.86357033252716064453e-02) (23, 1.83176826685667037964e-02) (24, 7.44006335735321044922e-02) (25, -7.18045160174369812012e-02) (26, 3.52348037995398044586e-03) (27, 8.82363133132457733154e-03) (28, -5.15819601714611053467e-02) (29, 1.11294008791446685791e-01) (30, 4.21643033623695373535e-02) (31, 9.12262678146362304688e-01) (32, 9.04446601867675781250e-01) (33, 9.61620926856994628906e-01) (34, 9.97509062290191650391e-01) (35, 7.96397507190704345703e-01) (36, 5.51635622978210449219e-01) (37, 4.57114726305007934570e-01) (38, 5.19300103187561035156e-01) (39, 2.64225870370864868164e-01) (40, 4.47693496942520141602e-01) (41, 4.36063677072525024414e-01) (42, 5.29142916202545166016e-01) (43, 5.03040730953216552734e-01) (44, 2.66918867826461791992e-01) (45, 1.99621975421905517578e-01) (46, 4.30317610502243041992e-01) (47, 4.13530021905899047852e-01) (48, 2.67739862203598022461e-01) (49, 2.48618751764297485352e-01) (50, 2.28989467024803161621e-01) (51, 2.44358554482460021973e-01) (52, 2.39080712199211120605e-01) (53, 3.98906677961349487305e-01) (54, 3.34733426570892333984e-01) (55, 3.82099449634552001953e-01) (56, 4.07251000404357910156e-01) (57, 3.46120923757553100586e-01) (58, 4.00503367185592651367e-01) (59, 5.32919526100158691406e-01) (60, 2.22317323088645935059e-01) (61, 2.00590878725051879883e-01) (62, -4.41624790430068969727e-01) (63, -4.19097810983657836914e-01) (64, -3.94897133111953735352e-01) (65, -4.82044696807861328125e-01) (66, -3.94410759210586547852e-01) (67, -2.62299627065658569336e-01) (68, 2.61523127555847167969e-02) (69, 2.31264919042587280273e-01) (70, 7.35170021653175354004e-02) (71, 2.72977918386459350586e-01) (72, -5.67133538424968719482e-02) (73, -1.14659406244754791260e-01) (74, -7.85948187112808227539e-02) (75, -1.58152803778648376465e-01) (76, 5.24717941880226135254e-02) (77, -8.05003475397825241089e-03) (78, 5.84202744066715240479e-02) (79, 1.35951628908514976501e-02) (80, 9.30217057466506958008e-02) (81, -6.19710162281990051270e-02) (82, 4.62108366191387176514e-02) (83, 1.17653325200080871582e-01) (84, 1.22802563011646270752e-01) (85, -3.23988832533359527588e-02) (86, 9.03820097446441650391e-02) (87, 1.14101409912109375000e-01) (88, -3.61792147159576416016e-02) (89, -5.95195628702640533447e-02) (90, 4.75977957248687744141e-02) (91, 6.83598592877388000488e-02) (92, 3.12823802232742309570e-02) (93, 3.27546149492263793945e-02) (94, 8.62331330776214599609e-01) (95, 8.46916913986206054688e-01) (96, 9.91078257560729980469e-01) (97, 8.94817471504211425781e-01) (98, 8.98053944110870361328e-01) (99, 5.27849614620208740234e-01) (100, 3.86193484067916870117e-01) (101, 4.21240746974945068359e-01) (102, 2.46330335736274719238e-01) (103, 3.80225300788879394531e-01) (104, 6.70702934265136718750e-01) (105, 5.55458426475524902344e-01) (106, 6.10127389430999755859e-01) (107, 2.30632677674293518066e-01) (108, 2.98385769128799438477e-01) (109, 3.87584358453750610352e-01) (110, 3.77422481775283813477e-01) (111, 3.59716057777404785156e-01) (112, 3.26559334993362426758e-01) (113, 2.12236359715461730957e-01) (114, 3.49804878234863281250e-01) (115, 3.22751343250274658203e-01) (116, 2.51118838787078857422e-01) (117, 3.09920698404312133789e-01) (118, 3.05470705032348632812e-01) (119, 3.56002688407897949219e-01) (120, 4.60588663816452026367e-01) (121, 3.62648814916610717773e-01) (122, 4.01612699031829833984e-01) (123, 2.54043102264404296875e-01) (124, 3.53326290845870971680e-01) (125, -4.22862678766250610352e-01) (126, -4.42171424627304077148e-01) (127, -4.12704080343246459961e-01) (128, -4.84592586755752563477e-01) (0, 3.69650691747665405273e-01) (1, 1.07198037207126617432e-01) (2, 7.27558732032775878906e-02) (3, 2.37837567925453186035e-01) (4, 9.42532569169998168945e-02) (5, 1.92345470190048217773e-01) (6, 2.25906968116760253906e-01) (7, 1.69271975755691528320e-01) (8, 1.22323930263519287109e-01) (9, 2.36104294657707214355e-01) (10, 1.63647174835205078125e-01) (11, 2.37765952944755554199e-01) (12, 1.08375705778598785400e-01) (13, 4.65092182159423828125e-01) (14, 5.04053592681884765625e-01) (15, 4.74954962730407714844e-01) (16, -3.60119331162422895432e-04) (17, 9.79525502771139144897e-03) (18, -9.06196534633636474609e-02) (19, -9.90541428327560424805e-02) (20, -8.57172906398773193359e-02) (21, -1.04637667536735534668e-01) (22, -2.13410153985023498535e-01) (23, -9.54868495464324951172e-02) (24, -1.69092312455177307129e-01) (25, -1.18231482803821563721e-01) (26, -1.54849039390683174133e-02) (27, -1.07909940183162689209e-01) (28, -1.32156446576118469238e-01) (29, -9.29548665881156921387e-02) (30, -8.68533700704574584961e-02) (31, 1.04545103386044502258e-02) (32, 3.28219085931777954102e-01) (33, 2.18898892402648925781e-01) (34, 1.98630020022392272949e-01) (35, 2.82479614019393920898e-01) (36, 2.79536962509155273438e-01) (37, 1.23545378446578979492e-01) (38, 1.78379595279693603516e-01) (39, 1.24714225530624389648e-01) (40, 2.81840234994888305664e-01) (41, 2.63147920370101928711e-01) (42, 2.83601462841033935547e-01) (43, 1.39008194208145141602e-01) (44, 1.13301590085029602051e-01) (45, -1.50805428624153137207e-01) (46, -1.36083185672760009766e-01) (47, -3.23047265410423278809e-02) (48, 4.06158030033111572266e-01) (49, 5.22044241428375244141e-01) (50, 4.15153682231903076172e-01) (51, 4.87824320793151855469e-01) (52, 2.69481956958770751953e-01) (53, 4.70881909132003784180e-01) (54, 4.91914272308349609375e-01) (55, 4.96412724256515502930e-01) (56, 4.24427181482315063477e-01) (57, 4.09309387207031250000e-01) (58, 4.82255935668945312500e-01) (59, 3.19728821516036987305e-01) (60, 3.62712591886520385742e-01) (61, 4.04590934514999389648e-01) (62, 4.57189202308654785156e-01) (63, 3.46629649400711059570e-01) (64, 3.52666783146560192108e-03) (65, 8.45271125435829162598e-02) (66, 1.38374522328376770020e-01) (67, 2.60853081941604614258e-01) (68, 1.62592053413391113281e-01) (69, 2.18308448791503906250e-01) (70, 8.99792760610580444336e-02) (71, 1.48844376206398010254e-01) (72, 1.87440842390060424805e-01) (73, 7.95652046799659729004e-02) (74, 1.82251155376434326172e-01) (75, 1.77693843841552734375e-01) (76, 4.94033396244049072266e-01) (77, 6.11441135406494140625e-01) (78, 5.26747524738311767578e-01) (79, -5.32187670469284057617e-02) (80, -2.27642524987459182739e-02) (81, -1.43486503511667251587e-02) (82, -1.08858510851860046387e-01) (83, -1.23223457485437393188e-02) (84, 